digraph Tree {
node [shape=box, style="filled, rounded", color="black", fontname="helvetica"] ;
edge [fontname="helvetica"] ;
0 [label=<x<SUB>3</SUB> &le; 172316920.0<br/>gini = 0.5<br/>samples = 10235701<br/>value = [5057767, 5177934]>, fillcolor="#fafdfe"] ;
1 [label=<x<SUB>6</SUB> &le; 1519183104.0<br/>gini = 0.09<br/>samples = 3192661<br/>value = [3041453, 151208]>, fillcolor="#e68743"] ;
0 -> 1 [labeldistance=2.5, labelangle=45, headlabel="True"] ;
2 [label=<x<SUB>6</SUB> &le; 1387747712.0<br/>gini = 0.003<br/>samples = 3046368<br/>value = [3041453, 4915]>, fillcolor="#e58139"] ;
1 -> 2 ;
3 [label=<gini = 0.0<br/>samples = 4915<br/>value = [0, 4915]>, fillcolor="#399de5"] ;
2 -> 3 ;
4 [label=<gini = 0.0<br/>samples = 3041453<br/>value = [3041453, 0]>, fillcolor="#e58139"] ;
2 -> 4 ;
5 [label=<gini = 0.0<br/>samples = 146293<br/>value = [0, 146293]>, fillcolor="#399de5"] ;
1 -> 5 ;
6 [label=<x<SUB>0</SUB> &le; 3621984.5<br/>gini = 0.409<br/>samples = 7043040<br/>value = [2016314, 5026726]>, fillcolor="#88c4ef"] ;
0 -> 6 [labeldistance=2.5, labelangle=-45, headlabel="False"] ;
7 [label=<x<SUB>8</SUB> &le; 4.5<br/>gini = 0.289<br/>samples = 6096540<br/>value = [1069814, 5026726]>, fillcolor="#63b2eb"] ;
6 -> 7 ;
8 [label=<x<SUB>3</SUB> &le; 18218234880.0<br/>gini = 0.213<br/>samples = 5696151<br/>value = [692143, 5004008]>, fillcolor="#54abe9"] ;
7 -> 8 ;
9 [label=<x<SUB>6</SUB> &le; 1508921088.0<br/>gini = 0.156<br/>samples = 5469673<br/>value = [465974, 5003699]>, fillcolor="#4ba6e7"] ;
8 -> 9 ;
10 [label=<x<SUB>6</SUB> &le; 1387753024.0<br/>gini = 0.191<br/>samples = 271671<br/>value = [242567, 29104]>, fillcolor="#e89051"] ;
9 -> 10 ;
11 [label=<gini = 0.0<br/>samples = 29104<br/>value = [0, 29104]>, fillcolor="#399de5"] ;
10 -> 11 ;
12 [label=<gini = 0.0<br/>samples = 242567<br/>value = [242567, 0]>, fillcolor="#e58139"] ;
10 -> 12 ;
13 [label=<x<SUB>7</SUB> &le; 309.5<br/>gini = 0.082<br/>samples = 5198002<br/>value = [223407, 4974595]>, fillcolor="#42a1e6"] ;
9 -> 13 ;
14 [label=<x<SUB>3</SUB> &le; 172766160.0<br/>gini = 0.499<br/>samples = 247314<br/>value = [119306, 128008]>, fillcolor="#f2f8fd"] ;
13 -> 14 ;
15 [label=<x<SUB>4</SUB> &le; 80.5<br/>gini = 0.002<br/>samples = 127453<br/>value = [154, 127299]>, fillcolor="#399de5"] ;
14 -> 15 ;
16 [label=<x<SUB>1</SUB> &le; 18464664576.0<br/>gini = 0.001<br/>samples = 127347<br/>value = [48, 127299]>, fillcolor="#399de5"] ;
15 -> 16 ;
17 [label=<x<SUB>2</SUB> &le; 31956.0<br/>gini = 0.0<br/>samples = 127326<br/>value = [27, 127299]>, fillcolor="#399de5"] ;
16 -> 17 ;
18 [label=<gini = 0.0<br/>samples = 9<br/>value = [9, 0]>, fillcolor="#e58139"] ;
17 -> 18 ;
19 [label=<x<SUB>1</SUB> &le; 1545601.5<br/>gini = 0.0<br/>samples = 127317<br/>value = [18, 127299]>, fillcolor="#399de5"] ;
17 -> 19 ;
20 [label=<gini = 0.0<br/>samples = 1<br/>value = [1, 0]>, fillcolor="#e58139"] ;
19 -> 20 ;
21 [label=<x<SUB>9</SUB> &le; 0.5<br/>gini = 0.0<br/>samples = 127316<br/>value = [17, 127299]>, fillcolor="#399de5"] ;
19 -> 21 ;
22 [label=<gini = 0.0<br/>samples = 1<br/>value = [1, 0]>, fillcolor="#e58139"] ;
21 -> 22 ;
23 [label=<x<SUB>2</SUB> &le; 65049.0<br/>gini = 0.0<br/>samples = 127315<br/>value = [16, 127299]>, fillcolor="#399de5"] ;
21 -> 23 ;
24 [label=<x<SUB>6</SUB> &le; 1518953088.0<br/>gini = 0.0<br/>samples = 127285<br/>value = [13, 127272]>, fillcolor="#399de5"] ;
23 -> 24 ;
25 [label=<gini = 0.0<br/>samples = 126317<br/>value = [0, 126317]>, fillcolor="#399de5"] ;
24 -> 25 ;
26 [label=<x<SUB>6</SUB> &le; 1519190080.0<br/>gini = 0.026<br/>samples = 968<br/>value = [13, 955]>, fillcolor="#3c9ee5"] ;
24 -> 26 ;
27 [label=<gini = 0.0<br/>samples = 13<br/>value = [13, 0]>, fillcolor="#e58139"] ;
26 -> 27 ;
28 [label=<gini = 0.0<br/>samples = 955<br/>value = [0, 955]>, fillcolor="#399de5"] ;
26 -> 28 ;
29 [label=<x<SUB>4</SUB> &le; 51.5<br/>gini = 0.18<br/>samples = 30<br/>value = [3, 27]>, fillcolor="#4fa8e8"] ;
23 -> 29 ;
30 [label=<gini = 0.0<br/>samples = 3<br/>value = [3, 0]>, fillcolor="#e58139"] ;
29 -> 30 ;
31 [label=<gini = 0.0<br/>samples = 27<br/>value = [0, 27]>, fillcolor="#399de5"] ;
29 -> 31 ;
32 [label=<gini = 0.0<br/>samples = 21<br/>value = [21, 0]>, fillcolor="#e58139"] ;
16 -> 32 ;
33 [label=<gini = 0.0<br/>samples = 106<br/>value = [106, 0]>, fillcolor="#e58139"] ;
15 -> 33 ;
34 [label=<x<SUB>6</SUB> &le; 1518952448.0<br/>gini = 0.012<br/>samples = 119861<br/>value = [119152, 709]>, fillcolor="#e5823a"] ;
14 -> 34 ;
35 [label=<gini = 0.0<br/>samples = 708<br/>value = [0, 708]>, fillcolor="#399de5"] ;
34 -> 35 ;
36 [label=<x<SUB>6</SUB> &le; 1519190720.0<br/>gini = 0.0<br/>samples = 119153<br/>value = [119152, 1]>, fillcolor="#e58139"] ;
34 -> 36 ;
37 [label=<gini = 0.0<br/>samples = 119152<br/>value = [119152, 0]>, fillcolor="#e58139"] ;
36 -> 37 ;
38 [label=<gini = 0.0<br/>samples = 1<br/>value = [0, 1]>, fillcolor="#399de5"] ;
36 -> 38 ;
39 [label=<x<SUB>1</SUB> &le; 18219224064.0<br/>gini = 0.041<br/>samples = 4950688<br/>value = [104101, 4846587]>, fillcolor="#3d9fe6"] ;
13 -> 39 ;
40 [label=<x<SUB>9</SUB> &le; 0.5<br/>gini = 0.038<br/>samples = 4941737<br/>value = [95150, 4846587]>, fillcolor="#3d9fe6"] ;
39 -> 40 ;
41 [label=<x<SUB>3</SUB> &le; 174601016.0<br/>gini = 0.289<br/>samples = 277326<br/>value = [48550, 228776]>, fillcolor="#63b2eb"] ;
40 -> 41 ;
42 [label=<x<SUB>6</SUB> &le; 1519122752.0<br/>gini = 0.0<br/>samples = 228778<br/>value = [2, 228776]>, fillcolor="#399de5"] ;
41 -> 42 ;
43 [label=<gini = 0.0<br/>samples = 228776<br/>value = [0, 228776]>, fillcolor="#399de5"] ;
42 -> 43 ;
44 [label=<gini = 0.0<br/>samples = 2<br/>value = [2, 0]>, fillcolor="#e58139"] ;
42 -> 44 ;
45 [label=<gini = 0.0<br/>samples = 48548<br/>value = [48548, 0]>, fillcolor="#e58139"] ;
41 -> 45 ;
46 [label=<x<SUB>1</SUB> &le; 172316864.0<br/>gini = 0.02<br/>samples = 4664411<br/>value = [46600, 4617811]>, fillcolor="#3b9ee5"] ;
40 -> 46 ;
47 [label=<x<SUB>3</SUB> &le; 175029656.0<br/>gini = 0.165<br/>samples = 269355<br/>value = [24446, 244909]>, fillcolor="#4da7e8"] ;
46 -> 47 ;
48 [label=<x<SUB>4</SUB> &le; 80.5<br/>gini = 0.0<br/>samples = 244951<br/>value = [42, 244909]>, fillcolor="#399de5"] ;
47 -> 48 ;
49 [label=<x<SUB>4</SUB> &le; 51.0<br/>gini = 0.0<br/>samples = 244912<br/>value = [3, 244909]>, fillcolor="#399de5"] ;
48 -> 49 ;
50 [label=<gini = 0.0<br/>samples = 3<br/>value = [3, 0]>, fillcolor="#e58139"] ;
49 -> 50 ;
51 [label=<gini = 0.0<br/>samples = 244909<br/>value = [0, 244909]>, fillcolor="#399de5"] ;
49 -> 51 ;
52 [label=<gini = 0.0<br/>samples = 39<br/>value = [39, 0]>, fillcolor="#e58139"] ;
48 -> 52 ;
53 [label=<gini = 0.0<br/>samples = 24404<br/>value = [24404, 0]>, fillcolor="#e58139"] ;
47 -> 53 ;
54 [label=<x<SUB>5</SUB> &le; 11.5<br/>gini = 0.01<br/>samples = 4395056<br/>value = [22154, 4372902]>, fillcolor="#3a9de5"] ;
46 -> 54 ;
55 [label=<x<SUB>4</SUB> &le; 51.5<br/>gini = 0.01<br/>samples = 4394510<br/>value = [21633, 4372877]>, fillcolor="#3a9de5"] ;
54 -> 55 ;
56 [label=<gini = 0.0<br/>samples = 302<br/>value = [302, 0]>, fillcolor="#e58139"] ;
55 -> 56 ;
57 [label=<x<SUB>6</SUB> &le; 1518952448.0<br/>gini = 0.01<br/>samples = 4394208<br/>value = [21331, 4372877]>, fillcolor="#3a9de5"] ;
55 -> 57 ;
58 [label=<gini = 0.0<br/>samples = 2801447<br/>value = [0, 2801447]>, fillcolor="#399de5"] ;
57 -> 58 ;
59 [label=<x<SUB>6</SUB> &le; 1519118016.0<br/>gini = 0.026<br/>samples = 1592761<br/>value = [21331, 1571430]>, fillcolor="#3c9ee5"] ;
57 -> 59 ;
60 [label=<gini = 0.0<br/>samples = 14656<br/>value = [14656, 0]>, fillcolor="#e58139"] ;
59 -> 60 ;
61 [label=<x<SUB>0</SUB> &le; 2440499.5<br/>gini = 0.008<br/>samples = 1578105<br/>value = [6675, 1571430]>, fillcolor="#3a9de5"] ;
59 -> 61 ;
62 [label=<x<SUB>7</SUB> &le; 4051407.0<br/>gini = 0.005<br/>samples = 1575747<br/>value = [4317, 1571430]>, fillcolor="#3a9de5"] ;
61 -> 62 ;
63 [label=<x<SUB>9</SUB> &le; 7.5<br/>gini = 0.005<br/>samples = 1574998<br/>value = [3590, 1571408]>, fillcolor="#399de5"] ;
62 -> 63 ;
64 [label=<x<SUB>6</SUB> &le; 1519190400.0<br/>gini = 0.004<br/>samples = 1574872<br/>value = [3464, 1571408]>, fillcolor="#399de5"] ;
63 -> 64 ;
65 [label=<x<SUB>0</SUB> &le; 472302.0<br/>gini = 0.036<br/>samples = 188255<br/>value = [3464, 184791]>, fillcolor="#3d9fe5"] ;
64 -> 65 ;
66 [label=<gini = 0.0<br/>samples = 184791<br/>value = [0, 184791]>, fillcolor="#399de5"] ;
65 -> 66 ;
67 [label=<gini = 0.0<br/>samples = 3464<br/>value = [3464, 0]>, fillcolor="#e58139"] ;
65 -> 67 ;
68 [label=<gini = 0.0<br/>samples = 1386617<br/>value = [0, 1386617]>, fillcolor="#399de5"] ;
64 -> 68 ;
69 [label=<gini = 0.0<br/>samples = 126<br/>value = [126, 0]>, fillcolor="#e58139"] ;
63 -> 69 ;
70 [label=<x<SUB>6</SUB> &le; 1519191552.0<br/>gini = 0.057<br/>samples = 749<br/>value = [727, 22]>, fillcolor="#e6853f"] ;
62 -> 70 ;
71 [label=<gini = 0.0<br/>samples = 727<br/>value = [727, 0]>, fillcolor="#e58139"] ;
70 -> 71 ;
72 [label=<gini = 0.0<br/>samples = 22<br/>value = [0, 22]>, fillcolor="#399de5"] ;
70 -> 72 ;
73 [label=<gini = 0.0<br/>samples = 2358<br/>value = [2358, 0]>, fillcolor="#e58139"] ;
61 -> 73 ;
74 [label=<x<SUB>4</SUB> &le; 101.5<br/>gini = 0.087<br/>samples = 546<br/>value = [521, 25]>, fillcolor="#e68743"] ;
54 -> 74 ;
75 [label=<gini = 0.0<br/>samples = 25<br/>value = [0, 25]>, fillcolor="#399de5"] ;
74 -> 75 ;
76 [label=<gini = 0.0<br/>samples = 521<br/>value = [521, 0]>, fillcolor="#e58139"] ;
74 -> 76 ;
77 [label=<gini = 0.0<br/>samples = 8951<br/>value = [8951, 0]>, fillcolor="#e58139"] ;
39 -> 77 ;
78 [label=<x<SUB>6</SUB> &le; 1387750336.0<br/>gini = 0.003<br/>samples = 226478<br/>value = [226169, 309]>, fillcolor="#e58139"] ;
8 -> 78 ;
79 [label=<gini = 0.0<br/>samples = 309<br/>value = [0, 309]>, fillcolor="#399de5"] ;
78 -> 79 ;
80 [label=<gini = 0.0<br/>samples = 226169<br/>value = [226169, 0]>, fillcolor="#e58139"] ;
78 -> 80 ;
81 [label=<x<SUB>3</SUB> &le; 183224448.0<br/>gini = 0.107<br/>samples = 400389<br/>value = [377671, 22718]>, fillcolor="#e78945"] ;
7 -> 81 ;
82 [label=<x<SUB>9</SUB> &le; 6.5<br/>gini = 0.068<br/>samples = 10960<br/>value = [385, 10575]>, fillcolor="#40a1e6"] ;
81 -> 82 ;
83 [label=<x<SUB>3</SUB> &le; 172569496.0<br/>gini = 0.029<br/>samples = 10731<br/>value = [156, 10575]>, fillcolor="#3c9ee5"] ;
82 -> 83 ;
84 [label=<x<SUB>1</SUB> &le; 35221695488.0<br/>gini = 0.001<br/>samples = 10186<br/>value = [7, 10179]>, fillcolor="#399de5"] ;
83 -> 84 ;
85 [label=<x<SUB>4</SUB> &le; 51.0<br/>gini = 0.0<br/>samples = 10181<br/>value = [2, 10179]>, fillcolor="#399de5"] ;
84 -> 85 ;
86 [label=<gini = 0.0<br/>samples = 2<br/>value = [2, 0]>, fillcolor="#e58139"] ;
85 -> 86 ;
87 [label=<gini = 0.0<br/>samples = 10179<br/>value = [0, 10179]>, fillcolor="#399de5"] ;
85 -> 87 ;
88 [label=<gini = 0.0<br/>samples = 5<br/>value = [5, 0]>, fillcolor="#e58139"] ;
84 -> 88 ;
89 [label=<x<SUB>6</SUB> &le; 1519179776.0<br/>gini = 0.397<br/>samples = 545<br/>value = [149, 396]>, fillcolor="#84c2ef"] ;
83 -> 89 ;
90 [label=<gini = 0.0<br/>samples = 149<br/>value = [149, 0]>, fillcolor="#e58139"] ;
89 -> 90 ;
91 [label=<gini = 0.0<br/>samples = 396<br/>value = [0, 396]>, fillcolor="#399de5"] ;
89 -> 91 ;
92 [label=<gini = 0.0<br/>samples = 229<br/>value = [229, 0]>, fillcolor="#e58139"] ;
82 -> 92 ;
93 [label=<x<SUB>6</SUB> &le; 1387753024.0<br/>gini = 0.06<br/>samples = 389429<br/>value = [377286, 12143]>, fillcolor="#e6853f"] ;
81 -> 93 ;
94 [label=<gini = 0.0<br/>samples = 8489<br/>value = [0, 8489]>, fillcolor="#399de5"] ;
93 -> 94 ;
95 [label=<x<SUB>4</SUB> &le; 32785.0<br/>gini = 0.019<br/>samples = 380940<br/>value = [377286, 3654]>, fillcolor="#e5823b"] ;
93 -> 95 ;
96 [label=<x<SUB>6</SUB> &le; 1519183168.0<br/>gini = 0.003<br/>samples = 376864<br/>value = [376245, 619]>, fillcolor="#e58139"] ;
95 -> 96 ;
97 [label=<gini = 0.0<br/>samples = 376245<br/>value = [376245, 0]>, fillcolor="#e58139"] ;
96 -> 97 ;
98 [label=<gini = 0.0<br/>samples = 619<br/>value = [0, 619]>, fillcolor="#399de5"] ;
96 -> 98 ;
99 [label=<x<SUB>2</SUB> &le; 84.0<br/>gini = 0.38<br/>samples = 4076<br/>value = [1041, 3035]>, fillcolor="#7dbfee"] ;
95 -> 99 ;
100 [label=<x<SUB>0</SUB> &le; 1732369.5<br/>gini = 0.03<br/>samples = 3082<br/>value = [47, 3035]>, fillcolor="#3c9fe5"] ;
99 -> 100 ;
101 [label=<gini = 0.0<br/>samples = 45<br/>value = [45, 0]>, fillcolor="#e58139"] ;
100 -> 101 ;
102 [label=<x<SUB>6</SUB> &le; 1518958272.0<br/>gini = 0.001<br/>samples = 3037<br/>value = [2, 3035]>, fillcolor="#399de5"] ;
100 -> 102 ;
103 [label=<gini = 0.0<br/>samples = 3035<br/>value = [0, 3035]>, fillcolor="#399de5"] ;
102 -> 103 ;
104 [label=<gini = 0.0<br/>samples = 2<br/>value = [2, 0]>, fillcolor="#e58139"] ;
102 -> 104 ;
105 [label=<gini = 0.0<br/>samples = 994<br/>value = [994, 0]>, fillcolor="#e58139"] ;
99 -> 105 ;
106 [label=<gini = 0.0<br/>samples = 946500<br/>value = [946500, 0]>, fillcolor="#e58139"] ;
6 -> 106 ;
}
