digraph Tree {
node [shape=box, style="filled, rounded", color="black", fontname="helvetica"] ;
edge [fontname="helvetica"] ;
0 [label=<x<SUB>3</SUB> &le; 172316920.0<br/>gini = 0.5<br/>samples = 10235701<br/>value = [5057767, 5177934]>, fillcolor="#fafdfe"] ;
1 [label=<x<SUB>4</SUB> &le; 55656.5<br/>gini = 0.09<br/>samples = 3192661<br/>value = [3041453, 151208]>, fillcolor="#e68743"] ;
0 -> 1 [labeldistance=2.5, labelangle=45, headlabel="True"] ;
2 [label=<x<SUB>2</SUB> &le; 85.5<br/>gini = 0.037<br/>samples = 3089497<br/>value = [3031537, 57960]>, fillcolor="#e5833d"] ;
1 -> 2 ;
3 [label=<x<SUB>0</SUB> &le; 2078165.0<br/>gini = 0.383<br/>samples = 204433<br/>value = [151658, 52775]>, fillcolor="#eead7e"] ;
2 -> 3 ;
4 [label=<x<SUB>1</SUB> &le; 172316864.0<br/>gini = 0.445<br/>samples = 79346<br/>value = [26571, 52775]>, fillcolor="#9dcef2"] ;
3 -> 4 ;
5 [label=<gini = 0.0<br/>samples = 15791<br/>value = [15791, 0]>, fillcolor="#e58139"] ;
4 -> 5 ;
6 [label=<x<SUB>1</SUB> &le; 174868688.0<br/>gini = 0.282<br/>samples = 63555<br/>value = [10780, 52775]>, fillcolor="#61b1ea"] ;
4 -> 6 ;
7 [label=<x<SUB>0</SUB> &le; 890413.5<br/>gini = 0.001<br/>samples = 52789<br/>value = [14, 52775]>, fillcolor="#399de5"] ;
6 -> 7 ;
8 [label=<gini = 0.0<br/>samples = 14<br/>value = [14, 0]>, fillcolor="#e58139"] ;
7 -> 8 ;
9 [label=<gini = 0.0<br/>samples = 52775<br/>value = [0, 52775]>, fillcolor="#399de5"] ;
7 -> 9 ;
10 [label=<gini = 0.0<br/>samples = 10766<br/>value = [10766, 0]>, fillcolor="#e58139"] ;
6 -> 10 ;
11 [label=<gini = 0.0<br/>samples = 125087<br/>value = [125087, 0]>, fillcolor="#e58139"] ;
3 -> 11 ;
12 [label=<x<SUB>3</SUB> &le; 847645.5<br/>gini = 0.004<br/>samples = 2885064<br/>value = [2879879, 5185]>, fillcolor="#e58139"] ;
2 -> 12 ;
13 [label=<x<SUB>3</SUB> &le; 732138.5<br/>gini = 0.348<br/>samples = 6339<br/>value = [1424, 4915]>, fillcolor="#72b9ed"] ;
12 -> 13 ;
14 [label=<gini = 0.0<br/>samples = 1424<br/>value = [1424, 0]>, fillcolor="#e58139"] ;
13 -> 14 ;
15 [label=<gini = 0.0<br/>samples = 4915<br/>value = [0, 4915]>, fillcolor="#399de5"] ;
13 -> 15 ;
16 [label=<x<SUB>0</SUB> &le; 1249344.0<br/>gini = 0.0<br/>samples = 2878725<br/>value = [2878455, 270]>, fillcolor="#e58139"] ;
12 -> 16 ;
17 [label=<x<SUB>0</SUB> &le; 1247762.0<br/>gini = 0.002<br/>samples = 263846<br/>value = [263576, 270]>, fillcolor="#e58139"] ;
16 -> 17 ;
18 [label=<gini = 0.0<br/>samples = 262987<br/>value = [262987, 0]>, fillcolor="#e58139"] ;
17 -> 18 ;
19 [label=<x<SUB>1</SUB> &le; 947741504.0<br/>gini = 0.431<br/>samples = 859<br/>value = [589, 270]>, fillcolor="#f1bb94"] ;
17 -> 19 ;
20 [label=<gini = 0.0<br/>samples = 270<br/>value = [0, 270]>, fillcolor="#399de5"] ;
19 -> 20 ;
21 [label=<gini = 0.0<br/>samples = 589<br/>value = [589, 0]>, fillcolor="#e58139"] ;
19 -> 21 ;
22 [label=<gini = 0.0<br/>samples = 2614879<br/>value = [2614879, 0]>, fillcolor="#e58139"] ;
16 -> 22 ;
23 [label=<x<SUB>2</SUB> &le; 109.5<br/>gini = 0.174<br/>samples = 103164<br/>value = [9916, 93248]>, fillcolor="#4ea7e8"] ;
1 -> 23 ;
24 [label=<x<SUB>0</SUB> &le; 2510536.0<br/>gini = 0.016<br/>samples = 93988<br/>value = [740, 93248]>, fillcolor="#3b9ee5"] ;
23 -> 24 ;
25 [label=<x<SUB>3</SUB> &le; 95267988.0<br/>gini = 0.001<br/>samples = 93305<br/>value = [57, 93248]>, fillcolor="#399de5"] ;
24 -> 25 ;
26 [label=<x<SUB>0</SUB> &le; 893046.5<br/>gini = 0.0<br/>samples = 93268<br/>value = [20, 93248]>, fillcolor="#399de5"] ;
25 -> 26 ;
27 [label=<gini = 0.0<br/>samples = 20<br/>value = [20, 0]>, fillcolor="#e58139"] ;
26 -> 27 ;
28 [label=<gini = 0.0<br/>samples = 93248<br/>value = [0, 93248]>, fillcolor="#399de5"] ;
26 -> 28 ;
29 [label=<gini = 0.0<br/>samples = 37<br/>value = [37, 0]>, fillcolor="#e58139"] ;
25 -> 29 ;
30 [label=<gini = 0.0<br/>samples = 683<br/>value = [683, 0]>, fillcolor="#e58139"] ;
24 -> 30 ;
31 [label=<gini = 0.0<br/>samples = 9176<br/>value = [9176, 0]>, fillcolor="#e58139"] ;
23 -> 31 ;
32 [label=<x<SUB>0</SUB> &le; 3621984.5<br/>gini = 0.409<br/>samples = 7043040<br/>value = [2016314, 5026726]>, fillcolor="#88c4ef"] ;
0 -> 32 [labeldistance=2.5, labelangle=-45, headlabel="False"] ;
33 [label=<x<SUB>3</SUB> &le; 1822017984.0<br/>gini = 0.289<br/>samples = 6096540<br/>value = [1069814, 5026726]>, fillcolor="#63b2eb"] ;
32 -> 33 ;
34 [label=<x<SUB>3</SUB> &le; 182212960.0<br/>gini = 0.174<br/>samples = 5293433<br/>value = [509705, 4783728]>, fillcolor="#4ea7e8"] ;
33 -> 34 ;
35 [label=<x<SUB>0</SUB> &le; 2167013.5<br/>gini = 0.01<br/>samples = 3223658<br/>value = [16437, 3207221]>, fillcolor="#3a9ee5"] ;
34 -> 35 ;
36 [label=<x<SUB>3</SUB> &le; 172430072.0<br/>gini = 0.007<br/>samples = 3217826<br/>value = [10605, 3207221]>, fillcolor="#3a9de5"] ;
35 -> 36 ;
37 [label=<x<SUB>4</SUB> &le; 80.5<br/>gini = 0.0<br/>samples = 2987101<br/>value = [391, 2986710]>, fillcolor="#399de5"] ;
36 -> 37 ;
38 [label=<x<SUB>1</SUB> &le; 18314862592.0<br/>gini = 0.0<br/>samples = 2986813<br/>value = [103, 2986710]>, fillcolor="#399de5"] ;
37 -> 38 ;
39 [label=<x<SUB>2</SUB> &le; 31956.0<br/>gini = 0.0<br/>samples = 2986772<br/>value = [62, 2986710]>, fillcolor="#399de5"] ;
38 -> 39 ;
40 [label=<gini = 0.0<br/>samples = 26<br/>value = [26, 0]>, fillcolor="#e58139"] ;
39 -> 40 ;
41 [label=<x<SUB>1</SUB> &le; 1545601.5<br/>gini = 0.0<br/>samples = 2986746<br/>value = [36, 2986710]>, fillcolor="#399de5"] ;
39 -> 41 ;
42 [label=<gini = 0.0<br/>samples = 1<br/>value = [1, 0]>, fillcolor="#e58139"] ;
41 -> 42 ;
43 [label=<x<SUB>4</SUB> &le; 53.0<br/>gini = 0.0<br/>samples = 2986745<br/>value = [35, 2986710]>, fillcolor="#399de5"] ;
41 -> 43 ;
44 [label=<x<SUB>4</SUB> &le; 21.5<br/>gini = 0.001<br/>samples = 84588<br/>value = [32, 84556]>, fillcolor="#399de5"] ;
43 -> 44 ;
45 [label=<gini = 0.0<br/>samples = 84556<br/>value = [0, 84556]>, fillcolor="#399de5"] ;
44 -> 45 ;
46 [label=<gini = 0.0<br/>samples = 32<br/>value = [32, 0]>, fillcolor="#e58139"] ;
44 -> 46 ;
47 [label=<x<SUB>1</SUB> &le; 1469218176.0<br/>gini = 0.0<br/>samples = 2902157<br/>value = [3, 2902154]>, fillcolor="#399de5"] ;
43 -> 47 ;
48 [label=<x<SUB>1</SUB> &le; 392053552.0<br/>gini = 0.0<br/>samples = 729090<br/>value = [3, 729087]>, fillcolor="#399de5"] ;
47 -> 48 ;
49 [label=<gini = 0.0<br/>samples = 729087<br/>value = [0, 729087]>, fillcolor="#399de5"] ;
48 -> 49 ;
50 [label=<gini = 0.0<br/>samples = 3<br/>value = [3, 0]>, fillcolor="#e58139"] ;
48 -> 50 ;
51 [label=<gini = 0.0<br/>samples = 2173067<br/>value = [0, 2173067]>, fillcolor="#399de5"] ;
47 -> 51 ;
52 [label=<gini = 0.0<br/>samples = 41<br/>value = [41, 0]>, fillcolor="#e58139"] ;
38 -> 52 ;
53 [label=<gini = 0.0<br/>samples = 288<br/>value = [288, 0]>, fillcolor="#e58139"] ;
37 -> 53 ;
54 [label=<x<SUB>3</SUB> &le; 181686296.0<br/>gini = 0.085<br/>samples = 230725<br/>value = [10214, 220511]>, fillcolor="#42a2e6"] ;
36 -> 54 ;
55 [label=<gini = 0.0<br/>samples = 10054<br/>value = [10054, 0]>, fillcolor="#e58139"] ;
54 -> 55 ;
56 [label=<x<SUB>0</SUB> &le; 1158914.0<br/>gini = 0.001<br/>samples = 220671<br/>value = [160, 220511]>, fillcolor="#399de5"] ;
54 -> 56 ;
57 [label=<gini = 0.0<br/>samples = 160<br/>value = [160, 0]>, fillcolor="#e58139"] ;
56 -> 57 ;
58 [label=<gini = 0.0<br/>samples = 220511<br/>value = [0, 220511]>, fillcolor="#399de5"] ;
56 -> 58 ;
59 [label=<gini = 0.0<br/>samples = 5832<br/>value = [5832, 0]>, fillcolor="#e58139"] ;
35 -> 59 ;
60 [label=<x<SUB>3</SUB> &le; 1821667008.0<br/>gini = 0.363<br/>samples = 2069775<br/>value = [493268, 1576507]>, fillcolor="#77bced"] ;
34 -> 60 ;
61 [label=<x<SUB>0</SUB> &le; 182415.5<br/>gini = 0.063<br/>samples = 509643<br/>value = [493003, 16640]>, fillcolor="#e68540"] ;
60 -> 61 ;
62 [label=<x<SUB>1</SUB> &le; 1921681088.0<br/>gini = 0.365<br/>samples = 64660<br/>value = [49142, 15518]>, fillcolor="#eda978"] ;
61 -> 62 ;
63 [label=<x<SUB>0</SUB> &le; 177576.5<br/>gini = 0.053<br/>samples = 48011<br/>value = [46700, 1311]>, fillcolor="#e6853f"] ;
62 -> 63 ;
64 [label=<x<SUB>1</SUB> &le; 192168336.0<br/>gini = 0.041<br/>samples = 46647<br/>value = [45676, 971]>, fillcolor="#e6843d"] ;
63 -> 64 ;
65 [label=<gini = 0.0<br/>samples = 30466<br/>value = [30466, 0]>, fillcolor="#e58139"] ;
64 -> 65 ;
66 [label=<x<SUB>1</SUB> &le; 193685528.0<br/>gini = 0.113<br/>samples = 16181<br/>value = [15210, 971]>, fillcolor="#e78946"] ;
64 -> 66 ;
67 [label=<gini = 0.0<br/>samples = 971<br/>value = [0, 971]>, fillcolor="#399de5"] ;
66 -> 67 ;
68 [label=<gini = 0.0<br/>samples = 15210<br/>value = [15210, 0]>, fillcolor="#e58139"] ;
66 -> 68 ;
69 [label=<x<SUB>0</SUB> &le; 178283.0<br/>gini = 0.374<br/>samples = 1364<br/>value = [1024, 340]>, fillcolor="#eeab7b"] ;
63 -> 69 ;
70 [label=<x<SUB>3</SUB> &le; 689320256.0<br/>gini = 0.45<br/>samples = 514<br/>value = [176, 338]>, fillcolor="#a0d0f3"] ;
69 -> 70 ;
71 [label=<gini = 0.0<br/>samples = 134<br/>value = [134, 0]>, fillcolor="#e58139"] ;
70 -> 71 ;
72 [label=<x<SUB>3</SUB> &le; 716547328.0<br/>gini = 0.197<br/>samples = 380<br/>value = [42, 338]>, fillcolor="#52a9e8"] ;
70 -> 72 ;
73 [label=<gini = 0.0<br/>samples = 338<br/>value = [0, 338]>, fillcolor="#399de5"] ;
72 -> 73 ;
74 [label=<gini = 0.0<br/>samples = 42<br/>value = [42, 0]>, fillcolor="#e58139"] ;
72 -> 74 ;
75 [label=<x<SUB>0</SUB> &le; 178375.5<br/>gini = 0.005<br/>samples = 850<br/>value = [848, 2]>, fillcolor="#e58139"] ;
69 -> 75 ;
76 [label=<x<SUB>0</SUB> &le; 178359.5<br/>gini = 0.198<br/>samples = 18<br/>value = [16, 2]>, fillcolor="#e89152"] ;
75 -> 76 ;
77 [label=<gini = 0.0<br/>samples = 16<br/>value = [16, 0]>, fillcolor="#e58139"] ;
76 -> 77 ;
78 [label=<gini = 0.0<br/>samples = 2<br/>value = [0, 2]>, fillcolor="#399de5"] ;
76 -> 78 ;
79 [label=<gini = 0.0<br/>samples = 832<br/>value = [832, 0]>, fillcolor="#e58139"] ;
75 -> 79 ;
80 [label=<x<SUB>3</SUB> &le; 197950296.0<br/>gini = 0.25<br/>samples = 16649<br/>value = [2442, 14207]>, fillcolor="#5baee9"] ;
62 -> 80 ;
81 [label=<gini = 0.0<br/>samples = 2442<br/>value = [2442, 0]>, fillcolor="#e58139"] ;
80 -> 81 ;
82 [label=<gini = 0.0<br/>samples = 14207<br/>value = [0, 14207]>, fillcolor="#399de5"] ;
80 -> 82 ;
83 [label=<x<SUB>0</SUB> &le; 291297.5<br/>gini = 0.005<br/>samples = 444983<br/>value = [443861, 1122]>, fillcolor="#e5813a"] ;
61 -> 83 ;
84 [label=<x<SUB>3</SUB> &le; 202226800.0<br/>gini = 0.057<br/>samples = 38021<br/>value = [36900, 1121]>, fillcolor="#e6853f"] ;
83 -> 84 ;
85 [label=<gini = 0.0<br/>samples = 28742<br/>value = [28742, 0]>, fillcolor="#e58139"] ;
84 -> 85 ;
86 [label=<x<SUB>3</SUB> &le; 205023824.0<br/>gini = 0.212<br/>samples = 9279<br/>value = [8158, 1121]>, fillcolor="#e99254"] ;
84 -> 86 ;
87 [label=<gini = 0.0<br/>samples = 555<br/>value = [0, 555]>, fillcolor="#399de5"] ;
86 -> 87 ;
88 [label=<x<SUB>1</SUB> &le; 1056924792.0<br/>gini = 0.121<br/>samples = 8724<br/>value = [8158, 566]>, fillcolor="#e78a47"] ;
86 -> 88 ;
89 [label=<x<SUB>1</SUB> &le; 192168336.0<br/>gini = 0.327<br/>samples = 2694<br/>value = [2139, 555]>, fillcolor="#eca26c"] ;
88 -> 89 ;
90 [label=<gini = 0.0<br/>samples = 2139<br/>value = [2139, 0]>, fillcolor="#e58139"] ;
89 -> 90 ;
91 [label=<gini = 0.0<br/>samples = 555<br/>value = [0, 555]>, fillcolor="#399de5"] ;
89 -> 91 ;
92 [label=<x<SUB>1</SUB> &le; 1921681088.0<br/>gini = 0.004<br/>samples = 6030<br/>value = [6019, 11]>, fillcolor="#e58139"] ;
88 -> 92 ;
93 [label=<gini = 0.0<br/>samples = 6019<br/>value = [6019, 0]>, fillcolor="#e58139"] ;
92 -> 93 ;
94 [label=<gini = 0.0<br/>samples = 11<br/>value = [0, 11]>, fillcolor="#399de5"] ;
92 -> 94 ;
95 [label=<x<SUB>0</SUB> &le; 291550.5<br/>gini = 0.0<br/>samples = 406962<br/>value = [406961, 1]>, fillcolor="#e58139"] ;
83 -> 95 ;
96 [label=<x<SUB>0</SUB> &le; 291548.5<br/>gini = 0.019<br/>samples = 104<br/>value = [103, 1]>, fillcolor="#e5823b"] ;
95 -> 96 ;
97 [label=<gini = 0.0<br/>samples = 103<br/>value = [103, 0]>, fillcolor="#e58139"] ;
96 -> 97 ;
98 [label=<gini = 0.0<br/>samples = 1<br/>value = [0, 1]>, fillcolor="#399de5"] ;
96 -> 98 ;
99 [label=<gini = 0.0<br/>samples = 406858<br/>value = [406858, 0]>, fillcolor="#e58139"] ;
95 -> 99 ;
100 [label=<x<SUB>2</SUB> &le; 262.5<br/>gini = 0.0<br/>samples = 1560132<br/>value = [265, 1559867]>, fillcolor="#399de5"] ;
60 -> 100 ;
101 [label=<x<SUB>0</SUB> &le; 890724.5<br/>gini = 0.0<br/>samples = 1559625<br/>value = [16, 1559609]>, fillcolor="#399de5"] ;
100 -> 101 ;
102 [label=<x<SUB>3</SUB> &le; 1821764096.0<br/>gini = 0.073<br/>samples = 423<br/>value = [16, 407]>, fillcolor="#41a1e6"] ;
101 -> 102 ;
103 [label=<gini = 0.0<br/>samples = 407<br/>value = [0, 407]>, fillcolor="#399de5"] ;
102 -> 103 ;
104 [label=<gini = 0.0<br/>samples = 16<br/>value = [16, 0]>, fillcolor="#e58139"] ;
102 -> 104 ;
105 [label=<gini = 0.0<br/>samples = 1559202<br/>value = [0, 1559202]>, fillcolor="#399de5"] ;
101 -> 105 ;
106 [label=<x<SUB>4</SUB> &le; 261.5<br/>gini = 0.5<br/>samples = 507<br/>value = [249, 258]>, fillcolor="#f8fcfe"] ;
100 -> 106 ;
107 [label=<x<SUB>0</SUB> &le; 889643.5<br/>gini = 0.397<br/>samples = 355<br/>value = [97, 258]>, fillcolor="#83c2ef"] ;
106 -> 107 ;
108 [label=<gini = 0.0<br/>samples = 97<br/>value = [97, 0]>, fillcolor="#e58139"] ;
107 -> 108 ;
109 [label=<gini = 0.0<br/>samples = 258<br/>value = [0, 258]>, fillcolor="#399de5"] ;
107 -> 109 ;
110 [label=<gini = 0.0<br/>samples = 152<br/>value = [152, 0]>, fillcolor="#e58139"] ;
106 -> 110 ;
111 [label=<x<SUB>2</SUB> &le; 84.0<br/>gini = 0.422<br/>samples = 803107<br/>value = [560109, 242998]>, fillcolor="#f0b88f"] ;
33 -> 111 ;
112 [label=<x<SUB>0</SUB> &le; 1249338.0<br/>gini = 0.107<br/>samples = 234640<br/>value = [13276, 221364]>, fillcolor="#45a3e7"] ;
111 -> 112 ;
113 [label=<x<SUB>3</SUB> &le; 8593129216.0<br/>gini = 0.001<br/>samples = 10605<br/>value = [10599, 6]>, fillcolor="#e58139"] ;
112 -> 113 ;
114 [label=<gini = 0.0<br/>samples = 10025<br/>value = [10025, 0]>, fillcolor="#e58139"] ;
113 -> 114 ;
115 [label=<x<SUB>0</SUB> &le; 410347.5<br/>gini = 0.02<br/>samples = 580<br/>value = [574, 6]>, fillcolor="#e5823b"] ;
113 -> 115 ;
116 [label=<gini = 0.0<br/>samples = 6<br/>value = [0, 6]>, fillcolor="#399de5"] ;
115 -> 116 ;
117 [label=<gini = 0.0<br/>samples = 574<br/>value = [574, 0]>, fillcolor="#e58139"] ;
115 -> 117 ;
118 [label=<x<SUB>2</SUB> &le; 40.0<br/>gini = 0.024<br/>samples = 224035<br/>value = [2677, 221358]>, fillcolor="#3b9ee5"] ;
112 -> 118 ;
119 [label=<gini = 0.0<br/>samples = 2677<br/>value = [2677, 0]>, fillcolor="#e58139"] ;
118 -> 119 ;
120 [label=<gini = 0.0<br/>samples = 221358<br/>value = [0, 221358]>, fillcolor="#399de5"] ;
118 -> 120 ;
121 [label=<x<SUB>0</SUB> &le; 291594.5<br/>gini = 0.073<br/>samples = 568467<br/>value = [546833, 21634]>, fillcolor="#e68641"] ;
111 -> 121 ;
122 [label=<x<SUB>4</SUB> &le; 101.5<br/>gini = 0.33<br/>samples = 102009<br/>value = [80753, 21256]>, fillcolor="#eca26d"] ;
121 -> 122 ;
123 [label=<x<SUB>2</SUB> &le; 37891.0<br/>gini = 0.481<br/>samples = 35409<br/>value = [14250, 21159]>, fillcolor="#bedff7"] ;
122 -> 123 ;
124 [label=<x<SUB>1</SUB> &le; 192168336.0<br/>gini = 0.19<br/>samples = 17502<br/>value = [1866, 15636]>, fillcolor="#51a9e8"] ;
123 -> 124 ;
125 [label=<gini = 0.0<br/>samples = 1084<br/>value = [1084, 0]>, fillcolor="#e58139"] ;
124 -> 125 ;
126 [label=<x<SUB>3</SUB> &le; 6673118208.0<br/>gini = 0.091<br/>samples = 16418<br/>value = [782, 15636]>, fillcolor="#43a2e6"] ;
124 -> 126 ;
127 [label=<gini = 0.0<br/>samples = 337<br/>value = [337, 0]>, fillcolor="#e58139"] ;
126 -> 127 ;
128 [label=<x<SUB>3</SUB> &le; 9794033664.0<br/>gini = 0.054<br/>samples = 16081<br/>value = [445, 15636]>, fillcolor="#3fa0e6"] ;
126 -> 128 ;
129 [label=<x<SUB>0</SUB> &le; 441.5<br/>gini = 0.011<br/>samples = 15257<br/>value = [86, 15171]>, fillcolor="#3a9ee5"] ;
128 -> 129 ;
130 [label=<gini = 0.0<br/>samples = 2<br/>value = [2, 0]>, fillcolor="#e58139"] ;
129 -> 130 ;
131 [label=<x<SUB>1</SUB> &le; 1921681088.0<br/>gini = 0.011<br/>samples = 15255<br/>value = [84, 15171]>, fillcolor="#3a9ee5"] ;
129 -> 131 ;
132 [label=<x<SUB>1</SUB> &le; 1056924792.0<br/>gini = 0.024<br/>samples = 6912<br/>value = [84, 6828]>, fillcolor="#3b9ee5"] ;
131 -> 132 ;
133 [label=<gini = 0.0<br/>samples = 6828<br/>value = [0, 6828]>, fillcolor="#399de5"] ;
132 -> 133 ;
134 [label=<gini = 0.0<br/>samples = 84<br/>value = [84, 0]>, fillcolor="#e58139"] ;
132 -> 134 ;
135 [label=<gini = 0.0<br/>samples = 8343<br/>value = [0, 8343]>, fillcolor="#399de5"] ;
131 -> 135 ;
136 [label=<x<SUB>1</SUB> &le; 1921681088.0<br/>gini = 0.492<br/>samples = 824<br/>value = [359, 465]>, fillcolor="#d2e9f9"] ;
128 -> 136 ;
137 [label=<gini = 0.0<br/>samples = 359<br/>value = [359, 0]>, fillcolor="#e58139"] ;
136 -> 137 ;
138 [label=<gini = 0.0<br/>samples = 465<br/>value = [0, 465]>, fillcolor="#399de5"] ;
136 -> 138 ;
139 [label=<x<SUB>1</SUB> &le; 1921682560.0<br/>gini = 0.427<br/>samples = 17907<br/>value = [12384, 5523]>, fillcolor="#f1b991"] ;
123 -> 139 ;
140 [label=<x<SUB>1</SUB> &le; 1056924792.0<br/>gini = 0.361<br/>samples = 16213<br/>value = [12384, 3829]>, fillcolor="#eda876"] ;
139 -> 140 ;
141 [label=<x<SUB>1</SUB> &le; 192168336.0<br/>gini = 0.5<br/>samples = 7864<br/>value = [4035, 3829]>, fillcolor="#fef9f5"] ;
140 -> 141 ;
142 [label=<gini = 0.0<br/>samples = 4035<br/>value = [4035, 0]>, fillcolor="#e58139"] ;
141 -> 142 ;
143 [label=<gini = 0.0<br/>samples = 3829<br/>value = [0, 3829]>, fillcolor="#399de5"] ;
141 -> 143 ;
144 [label=<gini = 0.0<br/>samples = 8349<br/>value = [8349, 0]>, fillcolor="#e58139"] ;
140 -> 144 ;
145 [label=<gini = 0.0<br/>samples = 1694<br/>value = [0, 1694]>, fillcolor="#399de5"] ;
139 -> 145 ;
146 [label=<x<SUB>1</SUB> &le; 1921681088.0<br/>gini = 0.003<br/>samples = 66600<br/>value = [66503, 97]>, fillcolor="#e58139"] ;
122 -> 146 ;
147 [label=<gini = 0.0<br/>samples = 53366<br/>value = [53366, 0]>, fillcolor="#e58139"] ;
146 -> 147 ;
148 [label=<x<SUB>4</SUB> &le; 16615.0<br/>gini = 0.015<br/>samples = 13234<br/>value = [13137, 97]>, fillcolor="#e5823a"] ;
146 -> 148 ;
149 [label=<gini = 0.0<br/>samples = 97<br/>value = [0, 97]>, fillcolor="#399de5"] ;
148 -> 149 ;
150 [label=<gini = 0.0<br/>samples = 13137<br/>value = [13137, 0]>, fillcolor="#e58139"] ;
148 -> 150 ;
151 [label=<x<SUB>2</SUB> &le; 64559.5<br/>gini = 0.002<br/>samples = 466458<br/>value = [466080, 378]>, fillcolor="#e58139"] ;
121 -> 151 ;
152 [label=<x<SUB>2</SUB> &le; 58707.5<br/>gini = 0.001<br/>samples = 465919<br/>value = [465791, 128]>, fillcolor="#e58139"] ;
151 -> 152 ;
153 [label=<gini = 0.0<br/>samples = 461862<br/>value = [461862, 0]>, fillcolor="#e58139"] ;
152 -> 153 ;
154 [label=<x<SUB>2</SUB> &le; 58718.0<br/>gini = 0.061<br/>samples = 4057<br/>value = [3929, 128]>, fillcolor="#e6853f"] ;
152 -> 154 ;
155 [label=<x<SUB>0</SUB> &le; 856155.0<br/>gini = 0.146<br/>samples = 139<br/>value = [11, 128]>, fillcolor="#4aa5e7"] ;
154 -> 155 ;
156 [label=<gini = 0.0<br/>samples = 11<br/>value = [11, 0]>, fillcolor="#e58139"] ;
155 -> 156 ;
157 [label=<gini = 0.0<br/>samples = 128<br/>value = [0, 128]>, fillcolor="#399de5"] ;
155 -> 157 ;
158 [label=<gini = 0.0<br/>samples = 3918<br/>value = [3918, 0]>, fillcolor="#e58139"] ;
154 -> 158 ;
159 [label=<x<SUB>0</SUB> &le; 1139854.0<br/>gini = 0.497<br/>samples = 539<br/>value = [289, 250]>, fillcolor="#fbeee4"] ;
151 -> 159 ;
160 [label=<gini = 0.0<br/>samples = 282<br/>value = [282, 0]>, fillcolor="#e58139"] ;
159 -> 160 ;
161 [label=<x<SUB>4</SUB> &le; 990.0<br/>gini = 0.053<br/>samples = 257<br/>value = [7, 250]>, fillcolor="#3fa0e6"] ;
159 -> 161 ;
162 [label=<gini = 0.0<br/>samples = 250<br/>value = [0, 250]>, fillcolor="#399de5"] ;
161 -> 162 ;
163 [label=<gini = 0.0<br/>samples = 7<br/>value = [7, 0]>, fillcolor="#e58139"] ;
161 -> 163 ;
164 [label=<gini = 0.0<br/>samples = 946500<br/>value = [946500, 0]>, fillcolor="#e58139"] ;
32 -> 164 ;
}
