digraph Tree {
node [shape=box, style="filled, rounded", color="black", fontname="helvetica"] ;
edge [fontname="helvetica"] ;
0 [label="x[19] <= 210.5\ngini = 0.5\nsamples = 6470382\nvalue = [5058547, 5177154]", fillcolor="#fafdfe"] ;
1 [label="x[1] <= 316355296.0\ngini = 0.15\nsamples = 2456425\nvalue = [3557563, 326650]", fillcolor="#e78d4b"] ;
0 -> 1 [labeldistance=2.5, labelangle=45, headlabel="True"] ;
2 [label="x[24] <= 5620584153088.0\ngini = 0.32\nsamples = 234013\nvalue = [74470, 295395]", fillcolor="#6bb6ec"] ;
1 -> 2 ;
3 [label="x[3] <= 1519121856.0\ngini = 0.19\nsamples = 206521\nvalue = [35699, 290575]", fillcolor="#51a9e8"] ;
2 -> 3 ;
4 [label="x[6] <= 0.5\ngini = 0.17\nsamples = 201581\nvalue = [29032, 289450]", fillcolor="#4da7e8"] ;
3 -> 4 ;
5 [label="x[23] <= 39209072.0\ngini = 0.16\nsamples = 200764\nvalue = [27755, 289450]", fillcolor="#4ca6e7"] ;
4 -> 5 ;
6 [label="x[0] <= 576931.0\ngini = 0.09\nsamples = 189564\nvalue = [13649, 285876]", fillcolor="#42a2e6"] ;
5 -> 6 ;
7 [label="x[2] <= 3059984256.0\ngini = 0.0\nsamples = 181229\nvalue = [328, 285876]", fillcolor="#399de5"] ;
6 -> 7 ;
8 [label="x[11] <= 16666.5\ngini = 0.0\nsamples = 181074\nvalue = [79, 285876]", fillcolor="#399de5"] ;
7 -> 8 ;
9 [label="x[20] <= 101.0\ngini = 0.0\nsamples = 181060\nvalue = [54, 285876]", fillcolor="#399de5"] ;
8 -> 9 ;
10 [label="x[1] <= 221145008.0\ngini = 0.0\nsamples = 180691\nvalue = [54, 285277]", fillcolor="#399de5"] ;
9 -> 10 ;
11 [label="gini = 0.0\nsamples = 28\nvalue = [53, 0]", fillcolor="#e58139"] ;
10 -> 11 ;
12 [label="x[18] <= 17841.0\ngini = 0.0\nsamples = 180663\nvalue = [1, 285277]", fillcolor="#399de5"] ;
10 -> 12 ;
13 [label="gini = 0.0\nsamples = 180662\nvalue = [0, 285277]", fillcolor="#399de5"] ;
12 -> 13 ;
14 [label="gini = 0.0\nsamples = 1\nvalue = [1, 0]", fillcolor="#e58139"] ;
12 -> 14 ;
15 [label="gini = 0.0\nsamples = 369\nvalue = [0, 599]", fillcolor="#399de5"] ;
9 -> 15 ;
16 [label="gini = 0.0\nsamples = 14\nvalue = [25, 0]", fillcolor="#e58139"] ;
8 -> 16 ;
17 [label="gini = 0.0\nsamples = 155\nvalue = [249, 0]", fillcolor="#e58139"] ;
7 -> 17 ;
18 [label="gini = 0.0\nsamples = 8335\nvalue = [13321, 0]", fillcolor="#e58139"] ;
6 -> 18 ;
19 [label="x[1] <= 282831296.0\ngini = 0.32\nsamples = 11200\nvalue = [14106, 3574]", fillcolor="#eca16b"] ;
5 -> 19 ;
20 [label="gini = 0.0\nsamples = 8924\nvalue = [14106, 0]", fillcolor="#e58139"] ;
19 -> 20 ;
21 [label="gini = 0.0\nsamples = 2276\nvalue = [0, 3574]", fillcolor="#399de5"] ;
19 -> 21 ;
22 [label="gini = 0.0\nsamples = 817\nvalue = [1277, 0]", fillcolor="#e58139"] ;
4 -> 22 ;
23 [label="x[22] <= 2350000.0\ngini = 0.25\nsamples = 4940\nvalue = [6667, 1125]", fillcolor="#e9965a"] ;
3 -> 23 ;
24 [label="x[20] <= 1026.0\ngini = 0.42\nsamples = 2400\nvalue = [2662, 1125]", fillcolor="#f0b68d"] ;
23 -> 24 ;
25 [label="gini = 0.0\nsamples = 1679\nvalue = [2662, 0]", fillcolor="#e58139"] ;
24 -> 25 ;
26 [label="gini = 0.0\nsamples = 721\nvalue = [0, 1125]", fillcolor="#399de5"] ;
24 -> 26 ;
27 [label="gini = 0.0\nsamples = 2540\nvalue = [4005, 0]", fillcolor="#e58139"] ;
23 -> 27 ;
28 [label="x[0] <= 566182.5\ngini = 0.2\nsamples = 27492\nvalue = [38771, 4820]", fillcolor="#e89152"] ;
2 -> 28 ;
29 [label="x[18] <= 125.5\ngini = 0.11\nsamples = 3159\nvalue = [282, 4727]", fillcolor="#45a3e7"] ;
28 -> 29 ;
30 [label="gini = 0.0\nsamples = 178\nvalue = [282, 0]", fillcolor="#e58139"] ;
29 -> 30 ;
31 [label="gini = 0.0\nsamples = 2981\nvalue = [0, 4727]", fillcolor="#399de5"] ;
29 -> 31 ;
32 [label="x[4] <= 2486.5\ngini = 0.0\nsamples = 24333\nvalue = [38489, 93]", fillcolor="#e58139"] ;
28 -> 32 ;
33 [label="x[2] <= 2887729792.0\ngini = 0.11\nsamples = 51\nvalue = [5, 81]", fillcolor="#45a3e7"] ;
32 -> 33 ;
34 [label="gini = 0.0\nsamples = 3\nvalue = [5, 0]", fillcolor="#e58139"] ;
33 -> 34 ;
35 [label="gini = 0.0\nsamples = 48\nvalue = [0, 81]", fillcolor="#399de5"] ;
33 -> 35 ;
36 [label="x[1] <= 283192096.0\ngini = 0.0\nsamples = 24282\nvalue = [38484, 12]", fillcolor="#e58139"] ;
32 -> 36 ;
37 [label="gini = 0.0\nsamples = 24275\nvalue = [38484, 0]", fillcolor="#e58139"] ;
36 -> 37 ;
38 [label="gini = 0.0\nsamples = 7\nvalue = [0, 12]", fillcolor="#399de5"] ;
36 -> 38 ;
39 [label="x[4] <= 20170.5\ngini = 0.02\nsamples = 2222412\nvalue = [3483093, 31255]", fillcolor="#e5823b"] ;
1 -> 39 ;
40 [label="x[1] <= 874352064.0\ngini = 0.22\nsamples = 105707\nvalue = [145803, 21523]", fillcolor="#e99456"] ;
39 -> 40 ;
41 [label="x[9] <= 2128.5\ngini = 0.15\nsamples = 12728\nvalue = [1588, 18483]", fillcolor="#4aa5e7"] ;
40 -> 41 ;
42 [label="x[2] <= 2887730304.0\ngini = 0.03\nsamples = 11898\nvalue = [299, 18415]", fillcolor="#3c9fe5"] ;
41 -> 42 ;
43 [label="gini = 0.0\nsamples = 185\nvalue = [295, 0]", fillcolor="#e58139"] ;
42 -> 43 ;
44 [label="x[21] <= 22.0\ngini = 0.0\nsamples = 11713\nvalue = [4, 18415]", fillcolor="#399de5"] ;
42 -> 44 ;
45 [label="x[3] <= 1519117376.0\ngini = 0.0\nsamples = 11711\nvalue = [1, 18415]", fillcolor="#399de5"] ;
44 -> 45 ;
46 [label="x[15] <= 100000.0\ngini = 0.0\nsamples = 433\nvalue = [1, 685]", fillcolor="#399de5"] ;
45 -> 46 ;
47 [label="gini = 0.0\nsamples = 1\nvalue = [1, 0]", fillcolor="#e58139"] ;
46 -> 47 ;
48 [label="gini = 0.0\nsamples = 432\nvalue = [0, 685]", fillcolor="#399de5"] ;
46 -> 48 ;
49 [label="gini = 0.0\nsamples = 11278\nvalue = [0, 17730]", fillcolor="#399de5"] ;
45 -> 49 ;
50 [label="gini = 0.0\nsamples = 2\nvalue = [3, 0]", fillcolor="#e58139"] ;
44 -> 50 ;
51 [label="x[8] <= 12016.5\ngini = 0.1\nsamples = 830\nvalue = [1289, 68]", fillcolor="#e68843"] ;
41 -> 51 ;
52 [label="x[4] <= 4115.0\ngini = 0.02\nsamples = 795\nvalue = [1286, 11]", fillcolor="#e5823b"] ;
51 -> 52 ;
53 [label="gini = 0.0\nsamples = 7\nvalue = [0, 9]", fillcolor="#399de5"] ;
52 -> 53 ;
54 [label="x[8] <= 2084.0\ngini = 0.0\nsamples = 788\nvalue = [1286, 2]", fillcolor="#e58139"] ;
52 -> 54 ;
55 [label="gini = 0.0\nsamples = 2\nvalue = [0, 2]", fillcolor="#399de5"] ;
54 -> 55 ;
56 [label="gini = 0.0\nsamples = 786\nvalue = [1286, 0]", fillcolor="#e58139"] ;
54 -> 56 ;
57 [label="x[23] <= 1913765298176.0\ngini = 0.09\nsamples = 35\nvalue = [3, 57]", fillcolor="#43a2e6"] ;
51 -> 57 ;
58 [label="gini = 0.0\nsamples = 3\nvalue = [3, 0]", fillcolor="#e58139"] ;
57 -> 58 ;
59 [label="gini = 0.0\nsamples = 32\nvalue = [0, 57]", fillcolor="#399de5"] ;
57 -> 59 ;
60 [label="x[3] <= 1387747776.0\ngini = 0.04\nsamples = 92979\nvalue = [144215, 3040]", fillcolor="#e6843d"] ;
40 -> 60 ;
61 [label="gini = 0.0\nsamples = 1137\nvalue = [0, 1796]", fillcolor="#399de5"] ;
60 -> 61 ;
62 [label="x[20] <= 9.5\ngini = 0.02\nsamples = 91842\nvalue = [144215, 1244]", fillcolor="#e5823b"] ;
60 -> 62 ;
63 [label="x[16] <= 3181250.0\ngini = 0.0\nsamples = 90935\nvalue = [143727, 306]", fillcolor="#e58139"] ;
62 -> 63 ;
64 [label="gini = 0.0\nsamples = 74758\nvalue = [118443, 0]", fillcolor="#e58139"] ;
63 -> 64 ;
65 [label="x[20] <= 7.5\ngini = 0.02\nsamples = 16177\nvalue = [25284, 306]", fillcolor="#e5833b"] ;
63 -> 65 ;
66 [label="x[0] <= 1251603.0\ngini = 0.01\nsamples = 15933\nvalue = [25106, 109]", fillcolor="#e5823a"] ;
65 -> 66 ;
67 [label="x[2] <= 354751648.0\ngini = 0.03\nsamples = 4801\nvalue = [7471, 109]", fillcolor="#e5833c"] ;
66 -> 67 ;
68 [label="x[3] <= 1519182272.0\ngini = 0.49\nsamples = 133\nvalue = [117, 89]", fillcolor="#f9e1d0"] ;
67 -> 68 ;
69 [label="gini = 0.0\nsamples = 78\nvalue = [117, 0]", fillcolor="#e58139"] ;
68 -> 69 ;
70 [label="gini = 0.0\nsamples = 55\nvalue = [0, 89]", fillcolor="#399de5"] ;
68 -> 70 ;
71 [label="x[2] <= 873393312.0\ngini = 0.01\nsamples = 4668\nvalue = [7354, 20]", fillcolor="#e5813a"] ;
67 -> 71 ;
72 [label="x[16] <= 3391666.5\ngini = 0.1\nsamples = 220\nvalue = [340, 20]", fillcolor="#e78845"] ;
71 -> 72 ;
73 [label="gini = 0.0\nsamples = 11\nvalue = [0, 20]", fillcolor="#399de5"] ;
72 -> 73 ;
74 [label="gini = 0.0\nsamples = 209\nvalue = [340, 0]", fillcolor="#e58139"] ;
72 -> 74 ;
75 [label="gini = 0.0\nsamples = 4448\nvalue = [7014, 0]", fillcolor="#e58139"] ;
71 -> 75 ;
76 [label="gini = 0.0\nsamples = 11132\nvalue = [17635, 0]", fillcolor="#e58139"] ;
66 -> 76 ;
77 [label="x[10] <= 4000000.0\ngini = 0.5\nsamples = 244\nvalue = [178, 197]", fillcolor="#ecf6fc"] ;
65 -> 77 ;
78 [label="x[9] <= 2473.5\ngini = 0.41\nsamples = 172\nvalue = [78, 197]", fillcolor="#87c4ef"] ;
77 -> 78 ;
79 [label="gini = 0.0\nsamples = 120\nvalue = [0, 197]", fillcolor="#399de5"] ;
78 -> 79 ;
80 [label="gini = 0.0\nsamples = 52\nvalue = [78, 0]", fillcolor="#e58139"] ;
78 -> 80 ;
81 [label="gini = 0.0\nsamples = 72\nvalue = [100, 0]", fillcolor="#e58139"] ;
77 -> 81 ;
82 [label="x[3] <= 1519182656.0\ngini = 0.45\nsamples = 907\nvalue = [488, 938]", fillcolor="#a0d0f3"] ;
62 -> 82 ;
83 [label="gini = 0.0\nsamples = 309\nvalue = [488, 0]", fillcolor="#e58139"] ;
82 -> 83 ;
84 [label="gini = 0.0\nsamples = 598\nvalue = [0, 938]", fillcolor="#399de5"] ;
82 -> 84 ;
85 [label="x[24] <= 500322058240.0\ngini = 0.01\nsamples = 2116705\nvalue = [3337290, 9732]", fillcolor="#e5813a"] ;
39 -> 85 ;
86 [label="x[4] <= 120075.5\ngini = 0.0\nsamples = 1927555\nvalue = [3043914, 4444]", fillcolor="#e58139"] ;
85 -> 86 ;
87 [label="x[7] <= 0.5\ngini = 0.17\nsamples = 16099\nvalue = [23196, 2365]", fillcolor="#e88e4d"] ;
86 -> 87 ;
88 [label="x[8] <= 42313.0\ngini = 0.16\nsamples = 15926\nvalue = [23094, 2197]", fillcolor="#e78d4c"] ;
87 -> 88 ;
89 [label="x[15] <= 50000.0\ngini = 0.07\nsamples = 8631\nvalue = [13350, 480]", fillcolor="#e68640"] ;
88 -> 89 ;
90 [label="x[19] <= 121.5\ngini = 0.04\nsamples = 7305\nvalue = [11424, 255]", fillcolor="#e6843d"] ;
89 -> 90 ;
91 [label="x[8] <= 41433.5\ngini = 0.02\nsamples = 7159\nvalue = [11306, 129]", fillcolor="#e5823b"] ;
90 -> 91 ;
92 [label="x[1] <= 873593408.0\ngini = 0.02\nsamples = 6835\nvalue = [10837, 84]", fillcolor="#e5823b"] ;
91 -> 92 ;
93 [label="x[1] <= 858209856.0\ngini = 0.2\nsamples = 450\nvalue = [635, 82]", fillcolor="#e89153"] ;
92 -> 93 ;
94 [label="gini = 0.0\nsamples = 398\nvalue = [635, 0]", fillcolor="#e58139"] ;
93 -> 94 ;
95 [label="gini = 0.0\nsamples = 52\nvalue = [0, 82]", fillcolor="#399de5"] ;
93 -> 95 ;
96 [label="x[2] <= 316281088.0\ngini = 0.0\nsamples = 6385\nvalue = [10202, 2]", fillcolor="#e58139"] ;
92 -> 96 ;
97 [label="x[10] <= 1600000.0\ngini = 0.09\nsamples = 21\nvalue = [38, 2]", fillcolor="#e68843"] ;
96 -> 97 ;
98 [label="gini = 0.0\nsamples = 20\nvalue = [38, 0]", fillcolor="#e58139"] ;
97 -> 98 ;
99 [label="gini = 0.0\nsamples = 1\nvalue = [0, 2]", fillcolor="#399de5"] ;
97 -> 99 ;
100 [label="gini = 0.0\nsamples = 6364\nvalue = [10164, 0]", fillcolor="#e58139"] ;
96 -> 100 ;
101 [label="x[9] <= 10394.5\ngini = 0.16\nsamples = 324\nvalue = [469, 45]", fillcolor="#e78d4c"] ;
91 -> 101 ;
102 [label="x[3] <= 1519118400.0\ngini = 0.16\nsamples = 318\nvalue = [459, 45]", fillcolor="#e88d4c"] ;
101 -> 102 ;
103 [label="gini = 0.0\nsamples = 240\nvalue = [372, 0]", fillcolor="#e58139"] ;
102 -> 103 ;
104 [label="x[13] <= 0.5\ngini = 0.45\nsamples = 78\nvalue = [87, 45]", fillcolor="#f2c29f"] ;
102 -> 104 ;
105 [label="x[21] <= 14.0\ngini = 0.47\nsamples = 68\nvalue = [72, 45]", fillcolor="#f5d0b5"] ;
104 -> 105 ;
106 [label="gini = 0.0\nsamples = 9\nvalue = [15, 0]", fillcolor="#e58139"] ;
105 -> 106 ;
107 [label="x[2] <= 2887730304.0\ngini = 0.49\nsamples = 59\nvalue = [57, 45]", fillcolor="#fae4d5"] ;
105 -> 107 ;
108 [label="gini = 0.0\nsamples = 35\nvalue = [57, 0]", fillcolor="#e58139"] ;
107 -> 108 ;
109 [label="gini = 0.0\nsamples = 24\nvalue = [0, 45]", fillcolor="#399de5"] ;
107 -> 109 ;
110 [label="gini = 0.0\nsamples = 10\nvalue = [15, 0]", fillcolor="#e58139"] ;
104 -> 110 ;
111 [label="gini = 0.0\nsamples = 6\nvalue = [10, 0]", fillcolor="#e58139"] ;
101 -> 111 ;
112 [label="x[19] <= 122.5\ngini = 0.5\nsamples = 146\nvalue = [118, 126]", fillcolor="#f2f9fd"] ;
90 -> 112 ;
113 [label="x[4] <= 25756.0\ngini = 0.13\nsamples = 80\nvalue = [9, 121]", fillcolor="#48a4e7"] ;
112 -> 113 ;
114 [label="x[11] <= 3945698176.0\ngini = 0.05\nsamples = 67\nvalue = [3, 107]", fillcolor="#3fa0e6"] ;
113 -> 114 ;
115 [label="gini = 0.0\nsamples = 55\nvalue = [0, 91]", fillcolor="#399de5"] ;
114 -> 115 ;
116 [label="x[1] <= 3232243968.0\ngini = 0.27\nsamples = 12\nvalue = [3, 16]", fillcolor="#5eafea"] ;
114 -> 116 ;
117 [label="gini = 0.0\nsamples = 1\nvalue = [3, 0]", fillcolor="#e58139"] ;
116 -> 117 ;
118 [label="gini = 0.0\nsamples = 11\nvalue = [0, 16]", fillcolor="#399de5"] ;
116 -> 118 ;
119 [label="x[2] <= 1040864672.0\ngini = 0.42\nsamples = 13\nvalue = [6, 14]", fillcolor="#8ec7f0"] ;
113 -> 119 ;
120 [label="gini = 0.0\nsamples = 3\nvalue = [6, 0]", fillcolor="#e58139"] ;
119 -> 120 ;
121 [label="gini = 0.0\nsamples = 10\nvalue = [0, 14]", fillcolor="#399de5"] ;
119 -> 121 ;
122 [label="x[21] <= 10.0\ngini = 0.08\nsamples = 66\nvalue = [109, 5]", fillcolor="#e68742"] ;
112 -> 122 ;
123 [label="x[8] <= 15724.5\ngini = 0.34\nsamples = 12\nvalue = [18, 5]", fillcolor="#eca470"] ;
122 -> 123 ;
124 [label="x[20] <= 0.5\ngini = 0.49\nsamples = 5\nvalue = [4, 5]", fillcolor="#d7ebfa"] ;
123 -> 124 ;
125 [label="gini = 0.0\nsamples = 2\nvalue = [2, 0]", fillcolor="#e58139"] ;
124 -> 125 ;
126 [label="x[4] <= 26421.5\ngini = 0.41\nsamples = 3\nvalue = [2, 5]", fillcolor="#88c4ef"] ;
124 -> 126 ;
127 [label="gini = 0.0\nsamples = 1\nvalue = [2, 0]", fillcolor="#e58139"] ;
126 -> 127 ;
128 [label="gini = 0.0\nsamples = 2\nvalue = [0, 5]", fillcolor="#399de5"] ;
126 -> 128 ;
129 [label="gini = 0.0\nsamples = 7\nvalue = [14, 0]", fillcolor="#e58139"] ;
123 -> 129 ;
130 [label="gini = 0.0\nsamples = 54\nvalue = [91, 0]", fillcolor="#e58139"] ;
122 -> 130 ;
131 [label="x[9] <= 22678.0\ngini = 0.19\nsamples = 1326\nvalue = [1926, 225]", fillcolor="#e89050"] ;
89 -> 131 ;
132 [label="x[3] <= 1387746240.0\ngini = 0.49\nsamples = 168\nvalue = [129, 169]", fillcolor="#d0e8f9"] ;
131 -> 132 ;
133 [label="gini = 0.0\nsamples = 86\nvalue = [0, 169]", fillcolor="#399de5"] ;
132 -> 133 ;
134 [label="gini = 0.0\nsamples = 82\nvalue = [129, 0]", fillcolor="#e58139"] ;
132 -> 134 ;
135 [label="x[4] <= 69714.5\ngini = 0.06\nsamples = 1158\nvalue = [1797, 56]", fillcolor="#e6853f"] ;
131 -> 135 ;
136 [label="x[17] <= 0.5\ngini = 0.19\nsamples = 218\nvalue = [306, 36]", fillcolor="#e89050"] ;
135 -> 136 ;
137 [label="x[8] <= 21521.5\ngini = 0.5\nsamples = 35\nvalue = [28, 32]", fillcolor="#e6f3fc"] ;
136 -> 137 ;
138 [label="gini = 0.0\nsamples = 11\nvalue = [16, 0]", fillcolor="#e58139"] ;
137 -> 138 ;
139 [label="x[18] <= -0.5\ngini = 0.4\nsamples = 24\nvalue = [12, 32]", fillcolor="#83c2ef"] ;
137 -> 139 ;
140 [label="x[1] <= 2489068160.0\ngini = 0.06\nsamples = 17\nvalue = [1, 32]", fillcolor="#3fa0e6"] ;
139 -> 140 ;
141 [label="gini = 0.0\nsamples = 1\nvalue = [1, 0]", fillcolor="#e58139"] ;
140 -> 141 ;
142 [label="gini = 0.0\nsamples = 16\nvalue = [0, 32]", fillcolor="#399de5"] ;
140 -> 142 ;
143 [label="gini = 0.0\nsamples = 7\nvalue = [11, 0]", fillcolor="#e58139"] ;
139 -> 143 ;
144 [label="x[10] <= 2950000.0\ngini = 0.03\nsamples = 183\nvalue = [278, 4]", fillcolor="#e5833c"] ;
136 -> 144 ;
145 [label="gini = 0.0\nsamples = 175\nvalue = [271, 0]", fillcolor="#e58139"] ;
144 -> 145 ;
146 [label="x[17] <= 65.5\ngini = 0.46\nsamples = 8\nvalue = [7, 4]", fillcolor="#f4c9aa"] ;
144 -> 146 ;
147 [label="gini = 0.0\nsamples = 2\nvalue = [0, 4]", fillcolor="#399de5"] ;
146 -> 147 ;
148 [label="gini = 0.0\nsamples = 6\nvalue = [7, 0]", fillcolor="#e58139"] ;
146 -> 148 ;
149 [label="x[8] <= 21711.0\ngini = 0.03\nsamples = 940\nvalue = [1491, 20]", fillcolor="#e5833c"] ;
135 -> 149 ;
150 [label="x[21] <= 10.0\ngini = 0.3\nsamples = 57\nvalue = [74, 17]", fillcolor="#eb9e66"] ;
149 -> 150 ;
151 [label="x[16] <= 1350000.0\ngini = 0.31\nsamples = 56\nvalue = [72, 17]", fillcolor="#eb9f68"] ;
150 -> 151 ;
152 [label="x[8] <= 19776.5\ngini = 0.45\nsamples = 15\nvalue = [9, 17]", fillcolor="#a2d1f3"] ;
151 -> 152 ;
153 [label="gini = 0.0\nsamples = 5\nvalue = [9, 0]", fillcolor="#e58139"] ;
152 -> 153 ;
154 [label="gini = 0.0\nsamples = 10\nvalue = [0, 17]", fillcolor="#399de5"] ;
152 -> 154 ;
155 [label="gini = 0.0\nsamples = 41\nvalue = [63, 0]", fillcolor="#e58139"] ;
151 -> 155 ;
156 [label="gini = 0.0\nsamples = 1\nvalue = [2, 0]", fillcolor="#e58139"] ;
150 -> 156 ;
157 [label="x[16] <= 25000.0\ngini = 0.0\nsamples = 883\nvalue = [1417, 3]", fillcolor="#e58139"] ;
149 -> 157 ;
158 [label="x[9] <= 39166.5\ngini = 0.09\nsamples = 36\nvalue = [60, 3]", fillcolor="#e68743"] ;
157 -> 158 ;
159 [label="x[1] <= 3059989888.0\ngini = 0.34\nsamples = 9\nvalue = [11, 3]", fillcolor="#eca36f"] ;
158 -> 159 ;
160 [label="gini = 0.0\nsamples = 7\nvalue = [11, 0]", fillcolor="#e58139"] ;
159 -> 160 ;
161 [label="gini = 0.0\nsamples = 2\nvalue = [0, 3]", fillcolor="#399de5"] ;
159 -> 161 ;
162 [label="gini = 0.0\nsamples = 27\nvalue = [49, 0]", fillcolor="#e58139"] ;
158 -> 162 ;
163 [label="gini = 0.0\nsamples = 847\nvalue = [1357, 0]", fillcolor="#e58139"] ;
157 -> 163 ;
164 [label="x[0] <= 577082.5\ngini = 0.25\nsamples = 7295\nvalue = [9744, 1717]", fillcolor="#ea975c"] ;
88 -> 164 ;
165 [label="x[9] <= 7933.0\ngini = 0.38\nsamples = 1454\nvalue = [590, 1717]", fillcolor="#7dbfee"] ;
164 -> 165 ;
166 [label="x[3] <= 1519116736.0\ngini = 0.04\nsamples = 1028\nvalue = [36, 1592]", fillcolor="#3d9fe6"] ;
165 -> 166 ;
167 [label="gini = 0.0\nsamples = 12\nvalue = [19, 0]", fillcolor="#e58139"] ;
166 -> 167 ;
168 [label="x[20] <= 0.5\ngini = 0.02\nsamples = 1016\nvalue = [17, 1592]", fillcolor="#3b9ee5"] ;
166 -> 168 ;
169 [label="x[2] <= 2382246272.0\ngini = 0.01\nsamples = 1012\nvalue = [8, 1592]", fillcolor="#3a9de5"] ;
168 -> 169 ;
170 [label="gini = 0.0\nsamples = 2\nvalue = [6, 0]", fillcolor="#e58139"] ;
169 -> 170 ;
171 [label="x[18] <= 33146.5\ngini = 0.0\nsamples = 1010\nvalue = [2, 1592]", fillcolor="#399de5"] ;
169 -> 171 ;
172 [label="gini = 0.0\nsamples = 1009\nvalue = [0, 1592]", fillcolor="#399de5"] ;
171 -> 172 ;
173 [label="gini = 0.0\nsamples = 1\nvalue = [2, 0]", fillcolor="#e58139"] ;
171 -> 173 ;
174 [label="gini = 0.0\nsamples = 4\nvalue = [9, 0]", fillcolor="#e58139"] ;
168 -> 174 ;
175 [label="x[4] <= 119865.5\ngini = 0.3\nsamples = 426\nvalue = [554, 125]", fillcolor="#eb9d66"] ;
165 -> 175 ;
176 [label="x[11] <= 139901063168.0\ngini = 0.16\nsamples = 379\nvalue = [548, 52]", fillcolor="#e78d4c"] ;
175 -> 176 ;
177 [label="x[2] <= 1642750144.0\ngini = 0.14\nsamples = 374\nvalue = [548, 45]", fillcolor="#e78b49"] ;
176 -> 177 ;
178 [label="x[3] <= 1387745664.0\ngini = 0.25\nsamples = 184\nvalue = [246, 42]", fillcolor="#e9975b"] ;
177 -> 178 ;
179 [label="gini = 0.0\nsamples = 26\nvalue = [0, 42]", fillcolor="#399de5"] ;
178 -> 179 ;
180 [label="gini = 0.0\nsamples = 158\nvalue = [246, 0]", fillcolor="#e58139"] ;
178 -> 180 ;
181 [label="x[16] <= 25000.0\ngini = 0.02\nsamples = 190\nvalue = [302, 3]", fillcolor="#e5823b"] ;
177 -> 181 ;
182 [label="x[11] <= 2346638608.0\ngini = 0.44\nsamples = 7\nvalue = [6, 3]", fillcolor="#f2c09c"] ;
181 -> 182 ;
183 [label="gini = 0.0\nsamples = 4\nvalue = [6, 0]", fillcolor="#e58139"] ;
182 -> 183 ;
184 [label="gini = 0.0\nsamples = 3\nvalue = [0, 3]", fillcolor="#399de5"] ;
182 -> 184 ;
185 [label="gini = 0.0\nsamples = 183\nvalue = [296, 0]", fillcolor="#e58139"] ;
181 -> 185 ;
186 [label="gini = 0.0\nsamples = 5\nvalue = [0, 7]", fillcolor="#399de5"] ;
176 -> 186 ;
187 [label="x[11] <= 578179952.0\ngini = 0.14\nsamples = 47\nvalue = [6, 73]", fillcolor="#49a5e7"] ;
175 -> 187 ;
188 [label="gini = 0.0\nsamples = 43\nvalue = [0, 73]", fillcolor="#399de5"] ;
187 -> 188 ;
189 [label="gini = 0.0\nsamples = 4\nvalue = [6, 0]", fillcolor="#e58139"] ;
187 -> 189 ;
190 [label="gini = 0.0\nsamples = 5841\nvalue = [9154, 0]", fillcolor="#e58139"] ;
164 -> 190 ;
191 [label="x[3] <= 1387730432.0\ngini = 0.47\nsamples = 173\nvalue = [102, 168]", fillcolor="#b1d8f5"] ;
87 -> 191 ;
192 [label="gini = 0.0\nsamples = 109\nvalue = [0, 168]", fillcolor="#399de5"] ;
191 -> 192 ;
193 [label="gini = 0.0\nsamples = 64\nvalue = [102, 0]", fillcolor="#e58139"] ;
191 -> 193 ;
194 [label="x[2] <= 1632347008.0\ngini = 0.0\nsamples = 1911456\nvalue = [3020718, 2079]", fillcolor="#e58139"] ;
86 -> 194 ;
195 [label="x[3] <= 1387747776.0\ngini = 0.01\nsamples = 138073\nvalue = [216961, 874]", fillcolor="#e5823a"] ;
194 -> 195 ;
196 [label="gini = 0.0\nsamples = 418\nvalue = [0, 655]", fillcolor="#399de5"] ;
195 -> 196 ;
197 [label="x[9] <= 8970635.0\ngini = 0.0\nsamples = 137655\nvalue = [216961, 219]", fillcolor="#e58139"] ;
195 -> 197 ;
198 [label="gini = 0.0\nsamples = 124538\nvalue = [196472, 0]", fillcolor="#e58139"] ;
197 -> 198 ;
199 [label="x[1] <= 2887730304.0\ngini = 0.02\nsamples = 13117\nvalue = [20489, 219]", fillcolor="#e5823b"] ;
197 -> 199 ;
200 [label="gini = 0.0\nsamples = 9912\nvalue = [15669, 0]", fillcolor="#e58139"] ;
199 -> 200 ;
201 [label="x[4] <= 11347305.0\ngini = 0.08\nsamples = 3205\nvalue = [4820, 219]", fillcolor="#e68742"] ;
199 -> 201 ;
202 [label="x[4] <= 10271028.5\ngini = 0.48\nsamples = 237\nvalue = [147, 219]", fillcolor="#bedff6"] ;
201 -> 202 ;
203 [label="x[2] <= 354703072.0\ngini = 0.5\nsamples = 153\nvalue = [132, 112]", fillcolor="#fbece1"] ;
202 -> 203 ;
204 [label="x[1] <= 3059984256.0\ngini = 0.17\nsamples = 75\nvalue = [12, 112]", fillcolor="#4ea8e8"] ;
203 -> 204 ;
205 [label="gini = 0.0\nsamples = 69\nvalue = [0, 112]", fillcolor="#399de5"] ;
204 -> 205 ;
206 [label="gini = 0.0\nsamples = 6\nvalue = [12, 0]", fillcolor="#e58139"] ;
204 -> 206 ;
207 [label="gini = 0.0\nsamples = 78\nvalue = [120, 0]", fillcolor="#e58139"] ;
203 -> 207 ;
208 [label="x[5] <= 46550000.0\ngini = 0.22\nsamples = 84\nvalue = [15, 107]", fillcolor="#55abe9"] ;
202 -> 208 ;
209 [label="gini = 0.0\nsamples = 72\nvalue = [0, 105]", fillcolor="#399de5"] ;
208 -> 209 ;
210 [label="x[0] <= 100043.0\ngini = 0.21\nsamples = 12\nvalue = [15, 2]", fillcolor="#e89253"] ;
208 -> 210 ;
211 [label="x[12] <= 0.5\ngini = 0.5\nsamples = 3\nvalue = [2, 2]", fillcolor="#ffffff"] ;
210 -> 211 ;
212 [label="gini = 0.0\nsamples = 1\nvalue = [2, 0]", fillcolor="#e58139"] ;
211 -> 212 ;
213 [label="gini = 0.0\nsamples = 2\nvalue = [0, 2]", fillcolor="#399de5"] ;
211 -> 213 ;
214 [label="gini = 0.0\nsamples = 9\nvalue = [13, 0]", fillcolor="#e58139"] ;
210 -> 214 ;
215 [label="gini = 0.0\nsamples = 2968\nvalue = [4673, 0]", fillcolor="#e58139"] ;
201 -> 215 ;
216 [label="x[0] <= 1755.0\ngini = 0.0\nsamples = 1773383\nvalue = [2803757, 1205]", fillcolor="#e58139"] ;
194 -> 216 ;
217 [label="x[9] <= 191787.0\ngini = 0.49\nsamples = 191\nvalue = [125, 175]", fillcolor="#c6e3f8"] ;
216 -> 217 ;
218 [label="x[16] <= 5000000.0\ngini = 0.05\nsamples = 110\nvalue = [5, 175]", fillcolor="#3fa0e6"] ;
217 -> 218 ;
219 [label="gini = 0.0\nsamples = 107\nvalue = [0, 175]", fillcolor="#399de5"] ;
218 -> 219 ;
220 [label="gini = 0.0\nsamples = 3\nvalue = [5, 0]", fillcolor="#e58139"] ;
218 -> 220 ;
221 [label="gini = 0.0\nsamples = 81\nvalue = [120, 0]", fillcolor="#e58139"] ;
217 -> 221 ;
222 [label="x[2] <= 2887730304.0\ngini = 0.0\nsamples = 1773192\nvalue = [2803632, 1030]", fillcolor="#e58139"] ;
216 -> 222 ;
223 [label="gini = 0.0\nsamples = 1514306\nvalue = [2394595, 0]", fillcolor="#e58139"] ;
222 -> 223 ;
224 [label="x[9] <= 106188.5\ngini = 0.01\nsamples = 258886\nvalue = [409037, 1030]", fillcolor="#e58139"] ;
222 -> 224 ;
225 [label="x[2] <= 2888624256.0\ngini = 0.01\nsamples = 111090\nvalue = [175042, 891]", fillcolor="#e5823a"] ;
224 -> 225 ;
226 [label="x[21] <= 14.0\ngini = 0.12\nsamples = 8308\nvalue = [12311, 876]", fillcolor="#e78a47"] ;
225 -> 226 ;
227 [label="x[4] <= 129649552.0\ngini = 0.42\nsamples = 55\nvalue = [25, 60]", fillcolor="#8bc6f0"] ;
226 -> 227 ;
228 [label="gini = 0.0\nsamples = 40\nvalue = [0, 60]", fillcolor="#399de5"] ;
227 -> 228 ;
229 [label="gini = 0.0\nsamples = 15\nvalue = [25, 0]", fillcolor="#e58139"] ;
227 -> 229 ;
230 [label="x[4] <= 608943.0\ngini = 0.12\nsamples = 8253\nvalue = [12286, 816]", fillcolor="#e78946"] ;
226 -> 230 ;
231 [label="x[3] <= 1519118016.0\ngini = 0.49\nsamples = 735\nvalue = [511, 663]", fillcolor="#d2e9f9"] ;
230 -> 231 ;
232 [label="gini = 0.0\nsamples = 205\nvalue = [331, 0]", fillcolor="#e58139"] ;
231 -> 232 ;
233 [label="x[9] <= 25383.0\ngini = 0.34\nsamples = 530\nvalue = [180, 663]", fillcolor="#6fb8ec"] ;
231 -> 233 ;
234 [label="x[0] <= 3071236.5\ngini = 0.3\nsamples = 508\nvalue = [151, 663]", fillcolor="#66b3eb"] ;
233 -> 234 ;
235 [label="gini = 0.0\nsamples = 413\nvalue = [0, 663]", fillcolor="#399de5"] ;
234 -> 235 ;
236 [label="gini = 0.0\nsamples = 95\nvalue = [151, 0]", fillcolor="#e58139"] ;
234 -> 236 ;
237 [label="gini = 0.0\nsamples = 22\nvalue = [29, 0]", fillcolor="#e58139"] ;
233 -> 237 ;
238 [label="x[3] <= 1519118144.0\ngini = 0.03\nsamples = 7518\nvalue = [11775, 153]", fillcolor="#e5833c"] ;
230 -> 238 ;
239 [label="x[3] <= 1519118016.0\ngini = 0.0\nsamples = 5547\nvalue = [8831, 1]", fillcolor="#e58139"] ;
238 -> 239 ;
240 [label="gini = 0.0\nsamples = 5514\nvalue = [8779, 0]", fillcolor="#e58139"] ;
239 -> 240 ;
241 [label="x[11] <= 12012500.0\ngini = 0.04\nsamples = 33\nvalue = [52, 1]", fillcolor="#e6833d"] ;
239 -> 241 ;
242 [label="x[1] <= 983751296.0\ngini = 0.06\nsamples = 22\nvalue = [33, 1]", fillcolor="#e6853f"] ;
241 -> 242 ;
243 [label="x[0] <= 2936260.0\ngini = 0.28\nsamples = 4\nvalue = [5, 1]", fillcolor="#ea9a61"] ;
242 -> 243 ;
244 [label="gini = 0.0\nsamples = 1\nvalue = [0, 1]", fillcolor="#399de5"] ;
243 -> 244 ;
245 [label="gini = 0.0\nsamples = 3\nvalue = [5, 0]", fillcolor="#e58139"] ;
243 -> 245 ;
246 [label="gini = 0.0\nsamples = 18\nvalue = [28, 0]", fillcolor="#e58139"] ;
242 -> 246 ;
247 [label="gini = 0.0\nsamples = 11\nvalue = [19, 0]", fillcolor="#e58139"] ;
241 -> 247 ;
248 [label="x[13] <= 0.5\ngini = 0.09\nsamples = 1971\nvalue = [2944, 152]", fillcolor="#e68843"] ;
238 -> 248 ;
249 [label="x[0] <= 3069078.5\ngini = 0.09\nsamples = 1958\nvalue = [2922, 152]", fillcolor="#e68843"] ;
248 -> 249 ;
250 [label="x[8] <= 16682626152.0\ngini = 0.01\nsamples = 94\nvalue = [1, 152]", fillcolor="#3a9ee5"] ;
249 -> 250 ;
251 [label="gini = 0.0\nsamples = 93\nvalue = [0, 152]", fillcolor="#399de5"] ;
250 -> 251 ;
252 [label="gini = 0.0\nsamples = 1\nvalue = [1, 0]", fillcolor="#e58139"] ;
250 -> 252 ;
253 [label="gini = 0.0\nsamples = 1864\nvalue = [2921, 0]", fillcolor="#e58139"] ;
249 -> 253 ;
254 [label="gini = 0.0\nsamples = 13\nvalue = [22, 0]", fillcolor="#e58139"] ;
248 -> 254 ;
255 [label="x[3] <= 1387726784.0\ngini = 0.0\nsamples = 102782\nvalue = [162731, 15]", fillcolor="#e58139"] ;
225 -> 255 ;
256 [label="gini = 0.0\nsamples = 10\nvalue = [0, 15]", fillcolor="#399de5"] ;
255 -> 256 ;
257 [label="gini = 0.0\nsamples = 102772\nvalue = [162731, 0]", fillcolor="#e58139"] ;
255 -> 257 ;
258 [label="x[3] <= 1387726784.0\ngini = 0.0\nsamples = 147796\nvalue = [233995, 139]", fillcolor="#e58139"] ;
224 -> 258 ;
259 [label="gini = 0.0\nsamples = 80\nvalue = [0, 135]", fillcolor="#399de5"] ;
258 -> 259 ;
260 [label="x[4] <= 9478885888.0\ngini = 0.0\nsamples = 147716\nvalue = [233995, 4]", fillcolor="#e58139"] ;
258 -> 260 ;
261 [label="gini = 0.0\nsamples = 139070\nvalue = [220273, 0]", fillcolor="#e58139"] ;
260 -> 261 ;
262 [label="x[17] <= 371.5\ngini = 0.0\nsamples = 8646\nvalue = [13722, 4]", fillcolor="#e58139"] ;
260 -> 262 ;
263 [label="gini = 0.0\nsamples = 8645\nvalue = [13722, 0]", fillcolor="#e58139"] ;
262 -> 263 ;
264 [label="gini = 0.0\nsamples = 1\nvalue = [0, 4]", fillcolor="#399de5"] ;
262 -> 264 ;
265 [label="x[1] <= 873593408.0\ngini = 0.03\nsamples = 189150\nvalue = [293376, 5288]", fillcolor="#e5833d"] ;
85 -> 265 ;
266 [label="x[0] <= 576966.0\ngini = 0.39\nsamples = 2152\nvalue = [908, 2506]", fillcolor="#81c1ee"] ;
265 -> 266 ;
267 [label="x[18] <= 5122.5\ngini = 0.0\nsamples = 1599\nvalue = [4, 2506]", fillcolor="#399de5"] ;
266 -> 267 ;
268 [label="gini = 0.0\nsamples = 1596\nvalue = [0, 2506]", fillcolor="#399de5"] ;
267 -> 268 ;
269 [label="gini = 0.0\nsamples = 3\nvalue = [4, 0]", fillcolor="#e58139"] ;
267 -> 269 ;
270 [label="gini = 0.0\nsamples = 553\nvalue = [904, 0]", fillcolor="#e58139"] ;
266 -> 270 ;
271 [label="x[3] <= 1387747712.0\ngini = 0.02\nsamples = 186998\nvalue = [292468, 2782]", fillcolor="#e5823b"] ;
265 -> 271 ;
272 [label="gini = 0.0\nsamples = 1730\nvalue = [0, 2767]", fillcolor="#399de5"] ;
271 -> 272 ;
273 [label="x[2] <= 316433072.0\ngini = 0.0\nsamples = 185268\nvalue = [292468, 15]", fillcolor="#e58139"] ;
271 -> 273 ;
274 [label="x[11] <= 13888.5\ngini = 0.0\nsamples = 3980\nvalue = [6219, 10]", fillcolor="#e58139"] ;
273 -> 274 ;
275 [label="x[9] <= 515.0\ngini = 0.08\nsamples = 145\nvalue = [218, 10]", fillcolor="#e68742"] ;
274 -> 275 ;
276 [label="gini = 0.0\nsamples = 126\nvalue = [199, 0]", fillcolor="#e58139"] ;
275 -> 276 ;
277 [label="x[3] <= 1519180288.0\ngini = 0.45\nsamples = 19\nvalue = [19, 10]", fillcolor="#f3c3a1"] ;
275 -> 277 ;
278 [label="gini = 0.0\nsamples = 10\nvalue = [19, 0]", fillcolor="#e58139"] ;
277 -> 278 ;
279 [label="gini = 0.0\nsamples = 9\nvalue = [0, 10]", fillcolor="#399de5"] ;
277 -> 279 ;
280 [label="gini = 0.0\nsamples = 3835\nvalue = [6001, 0]", fillcolor="#e58139"] ;
274 -> 280 ;
281 [label="x[10] <= 3150000.0\ngini = 0.0\nsamples = 181288\nvalue = [286249, 5]", fillcolor="#e58139"] ;
273 -> 281 ;
282 [label="gini = 0.0\nsamples = 179106\nvalue = [282820, 0]", fillcolor="#e58139"] ;
281 -> 282 ;
283 [label="x[20] <= 22.5\ngini = 0.0\nsamples = 2182\nvalue = [3429, 5]", fillcolor="#e58139"] ;
281 -> 283 ;
284 [label="x[3] <= 1519184128.0\ngini = 0.0\nsamples = 2146\nvalue = [3373, 2]", fillcolor="#e58139"] ;
283 -> 284 ;
285 [label="gini = 0.0\nsamples = 2145\nvalue = [3373, 0]", fillcolor="#e58139"] ;
284 -> 285 ;
286 [label="gini = 0.0\nsamples = 1\nvalue = [0, 2]", fillcolor="#399de5"] ;
284 -> 286 ;
287 [label="x[0] <= 886675.0\ngini = 0.1\nsamples = 36\nvalue = [56, 3]", fillcolor="#e68844"] ;
283 -> 287 ;
288 [label="gini = 0.0\nsamples = 34\nvalue = [56, 0]", fillcolor="#e58139"] ;
287 -> 288 ;
289 [label="gini = 0.0\nsamples = 2\nvalue = [0, 3]", fillcolor="#399de5"] ;
287 -> 289 ;
290 [label="x[21] <= 10.0\ngini = 0.36\nsamples = 4013957\nvalue = [1500984, 4850504]", fillcolor="#76bbed"] ;
0 -> 290 [labeldistance=2.5, labelangle=-45, headlabel="False"] ;
291 [label="x[3] <= 1508921088.0\ngini = 0.05\nsamples = 3000187\nvalue = [128192, 4618376]", fillcolor="#3ea0e6"] ;
290 -> 291 ;
292 [label="x[1] <= 3232243968.0\ngini = 0.35\nsamples = 104294\nvalue = [128192, 37013]", fillcolor="#eda572"] ;
291 -> 292 ;
293 [label="x[3] <= 1387753024.0\ngini = 0.27\nsamples = 92771\nvalue = [123914, 23121]", fillcolor="#ea995e"] ;
292 -> 293 ;
294 [label="gini = 0.0\nsamples = 14636\nvalue = [0, 23121]", fillcolor="#399de5"] ;
293 -> 294 ;
295 [label="gini = 0.0\nsamples = 78135\nvalue = [123914, 0]", fillcolor="#e58139"] ;
293 -> 295 ;
296 [label="x[11] <= 1148617664.0\ngini = 0.36\nsamples = 11523\nvalue = [4278, 13892]", fillcolor="#76bbed"] ;
292 -> 296 ;
297 [label="x[3] <= 1387747968.0\ngini = 0.44\nsamples = 8172\nvalue = [4230, 8740]", fillcolor="#99ccf2"] ;
296 -> 297 ;
298 [label="gini = 0.0\nsamples = 5480\nvalue = [0, 8740]", fillcolor="#399de5"] ;
297 -> 298 ;
299 [label="gini = 0.0\nsamples = 2692\nvalue = [4230, 0]", fillcolor="#e58139"] ;
297 -> 299 ;
300 [label="x[2] <= 2432257344.0\ngini = 0.02\nsamples = 3351\nvalue = [48, 5152]", fillcolor="#3b9ee5"] ;
296 -> 300 ;
301 [label="gini = 0.0\nsamples = 3318\nvalue = [0, 5152]", fillcolor="#399de5"] ;
300 -> 301 ;
302 [label="gini = 0.0\nsamples = 33\nvalue = [48, 0]", fillcolor="#e58139"] ;
300 -> 302 ;
303 [label="gini = 0.0\nsamples = 2895893\nvalue = [0, 4581363]", fillcolor="#399de5"] ;
291 -> 303 ;
304 [label="x[15] <= 50000.0\ngini = 0.25\nsamples = 1013770\nvalue = [1372792, 232128]", fillcolor="#e9965a"] ;
290 -> 304 ;
305 [label="gini = 0.0\nsamples = 574894\nvalue = [910545, 0]", fillcolor="#e58139"] ;
304 -> 305 ;
306 [label="x[19] <= 211.5\ngini = 0.45\nsamples = 438876\nvalue = [462247, 232128]", fillcolor="#f2c09c"] ;
304 -> 306 ;
307 [label="x[5] <= 700000.0\ngini = 0.0\nsamples = 146624\nvalue = [112, 232128]", fillcolor="#399de5"] ;
306 -> 307 ;
308 [label="gini = 0.0\nsamples = 59\nvalue = [100, 0]", fillcolor="#e58139"] ;
307 -> 308 ;
309 [label="x[9] <= 178975.0\ngini = 0.0\nsamples = 146565\nvalue = [12, 232128]", fillcolor="#399de5"] ;
307 -> 309 ;
310 [label="gini = 0.0\nsamples = 8\nvalue = [11, 0]", fillcolor="#e58139"] ;
309 -> 310 ;
311 [label="x[14] <= 0.5\ngini = 0.0\nsamples = 146557\nvalue = [1, 232128]", fillcolor="#399de5"] ;
309 -> 311 ;
312 [label="gini = 0.0\nsamples = 1\nvalue = [1, 0]", fillcolor="#e58139"] ;
311 -> 312 ;
313 [label="gini = 0.0\nsamples = 146556\nvalue = [0, 232128]", fillcolor="#399de5"] ;
311 -> 313 ;
314 [label="gini = 0.0\nsamples = 292252\nvalue = [462135, 0]", fillcolor="#e58139"] ;
306 -> 314 ;
}