digraph Tree {
node [shape=box, style="filled, rounded", color="black", fontname="helvetica"] ;
edge [fontname="helvetica"] ;
0 [label="Fwd Seg Size Min <= 4.0\ngini = 0.5\nsamples = 6468054\nvalue = [5056820, 5178881]", fillcolor="#fafdfe"] ;
1 [label="Timestamp <= 1508921088.0\ngini = 0.15\nsamples = 3253429\nvalue = [431752, 4716474]", fillcolor="#4ba6e7"] ;
0 -> 1 [labeldistance=2.5, labelangle=45, headlabel="True"] ;
2 [label="Timestamp <= 1387753024.0\ngini = 0.2\nsamples = 241190\nvalue = [339141, 42584]", fillcolor="#e89152"] ;
1 -> 2 ;
3 [label="gini = 0.0\nsamples = 27074\nvalue = [0, 42584]", fillcolor="#399de5"] ;
2 -> 3 ;
4 [label="gini = 0.0\nsamples = 214116\nvalue = [339141, 0]", fillcolor="#e58139"] ;
2 -> 4 ;
5 [label="Src IP <= 218918680.0\ngini = 0.04\nsamples = 3012239\nvalue = [92611, 4673890]", fillcolor="#3d9fe6"] ;
1 -> 5 ;
6 [label="gini = 0.0\nsamples = 38193\nvalue = [60444, 0]", fillcolor="#e58139"] ;
5 -> 6 ;
7 [label="Init Bwd Win Byts <= -0.5\ngini = 0.01\nsamples = 2974046\nvalue = [32167, 4673890]", fillcolor="#3a9ee5"] ;
5 -> 7 ;
8 [label="Unnamed: 0 <= 267300.5\ngini = 0.14\nsamples = 21979\nvalue = [32167, 2667]", fillcolor="#e78b49"] ;
7 -> 8 ;
9 [label="gini = 0.0\nsamples = 856\nvalue = [0, 1356]", fillcolor="#399de5"] ;
8 -> 9 ;
10 [label="Dst IP <= 351294672.0\ngini = 0.08\nsamples = 21123\nvalue = [32167, 1311]", fillcolor="#e68641"] ;
8 -> 10 ;
11 [label="Fwd Act Data Pkts <= 0.5\ngini = 0.5\nsamples = 1344\nvalue = [1003, 1185]", fillcolor="#e1f0fb"] ;
10 -> 11 ;
12 [label="gini = 0.0\nsamples = 608\nvalue = [1003, 0]", fillcolor="#e58139"] ;
11 -> 12 ;
13 [label="gini = 0.0\nsamples = 736\nvalue = [0, 1185]", fillcolor="#399de5"] ;
11 -> 13 ;
14 [label="Subflow Bwd Byts <= 16.0\ngini = 0.01\nsamples = 19779\nvalue = [31164, 126]", fillcolor="#e5823a"] ;
10 -> 14 ;
15 [label="gini = 0.0\nsamples = 19699\nvalue = [31164, 0]", fillcolor="#e58139"] ;
14 -> 15 ;
16 [label="gini = 0.0\nsamples = 80\nvalue = [0, 126]", fillcolor="#399de5"] ;
14 -> 16 ;
17 [label="gini = 0.0\nsamples = 2952067\nvalue = [0, 4671223]", fillcolor="#399de5"] ;
7 -> 17 ;
18 [label="Dst IP <= 2887730304.0\ngini = 0.17\nsamples = 3214625\nvalue = [4625068, 462407]", fillcolor="#e88e4d"] ;
0 -> 18 [labeldistance=2.5, labelangle=-45, headlabel="False"] ;
19 [label="gini = 0.0\nsamples = 2632821\nvalue = [4166112, 0]", fillcolor="#e58139"] ;
18 -> 19 ;
20 [label="Fwd Pkts/s <= 461382.5\ngini = 0.5\nsamples = 581804\nvalue = [458956, 462407]", fillcolor="#fefeff"] ;
18 -> 20 ;
21 [label="Idle Std <= 35355.0\ngini = 0.43\nsamples = 413362\nvalue = [200817, 454143]", fillcolor="#91c8f0"] ;
20 -> 21 ;
22 [label="Src IP <= 873527488.0\ngini = 0.26\nsamples = 339885\nvalue = [84625, 454143]", fillcolor="#5eafea"] ;
21 -> 22 ;
23 [label="Unnamed: 0 <= 3070377.0\ngini = 0.02\nsamples = 288953\nvalue = [3935, 454143]", fillcolor="#3b9ee5"] ;
22 -> 23 ;
24 [label="Bwd Pkts/s <= 256401.5\ngini = 0.0\nsamples = 286460\nvalue = [10, 454143]", fillcolor="#399de5"] ;
23 -> 24 ;
25 [label="gini = 0.0\nsamples = 169519\nvalue = [0, 269264]", fillcolor="#399de5"] ;
24 -> 25 ;
26 [label="ECE Flag Cnt <= 0.5\ngini = 0.0\nsamples = 116941\nvalue = [10, 184879]", fillcolor="#399de5"] ;
24 -> 26 ;
27 [label="gini = 0.0\nsamples = 9\nvalue = [10, 0]", fillcolor="#e58139"] ;
26 -> 27 ;
28 [label="gini = 0.0\nsamples = 116932\nvalue = [0, 184879]", fillcolor="#399de5"] ;
26 -> 28 ;
29 [label="gini = 0.0\nsamples = 2493\nvalue = [3925, 0]", fillcolor="#e58139"] ;
23 -> 29 ;
30 [label="gini = 0.0\nsamples = 50932\nvalue = [80690, 0]", fillcolor="#e58139"] ;
22 -> 30 ;
31 [label="gini = 0.0\nsamples = 73477\nvalue = [116192, 0]", fillcolor="#e58139"] ;
21 -> 31 ;
32 [label="Dst IP <= 2888624256.0\ngini = 0.06\nsamples = 168442\nvalue = [258139, 8264]", fillcolor="#e6853f"] ;
20 -> 32 ;
33 [label="Fwd Pkts/s <= 139824416.0\ngini = 0.25\nsamples = 35670\nvalue = [48019, 8264]", fillcolor="#e9975b"] ;
32 -> 33 ;
34 [label="Src IP <= 316414000.0\ngini = 0.41\nsamples = 18515\nvalue = [20888, 8218]", fillcolor="#efb387"] ;
33 -> 34 ;
35 [label="Pkt Len Min <= 1600000.0\ngini = 0.24\nsamples = 5452\nvalue = [1212, 7327]", fillcolor="#5aade9"] ;
34 -> 35 ;
36 [label="Unnamed: 0 <= 3071127.5\ngini = 0.26\nsamples = 5087\nvalue = [1212, 6751]", fillcolor="#5dafea"] ;
35 -> 36 ;
37 [label="Init Fwd Win Byts <= 1536.5\ngini = 0.01\nsamples = 4334\nvalue = [25, 6751]", fillcolor="#3a9de5"] ;
36 -> 37 ;
38 [label="Init Bwd Win Byts <= -0.5\ngini = 0.28\nsamples = 90\nvalue = [24, 120]", fillcolor="#61b1ea"] ;
37 -> 38 ;
39 [label="gini = 0.0\nsamples = 75\nvalue = [0, 120]", fillcolor="#399de5"] ;
38 -> 39 ;
40 [label="gini = 0.0\nsamples = 15\nvalue = [24, 0]", fillcolor="#e58139"] ;
38 -> 40 ;
41 [label="Fwd Act Data Pkts <= 2.0\ngini = 0.0\nsamples = 4244\nvalue = [1, 6631]", fillcolor="#399de5"] ;
37 -> 41 ;
42 [label="gini = 0.0\nsamples = 4243\nvalue = [0, 6631]", fillcolor="#399de5"] ;
41 -> 42 ;
43 [label="gini = 0.0\nsamples = 1\nvalue = [1, 0]", fillcolor="#e58139"] ;
41 -> 43 ;
44 [label="gini = 0.0\nsamples = 753\nvalue = [1187, 0]", fillcolor="#e58139"] ;
36 -> 44 ;
45 [label="gini = 0.0\nsamples = 365\nvalue = [0, 576]", fillcolor="#399de5"] ;
35 -> 45 ;
46 [label="Unnamed: 0 <= 529883.5\ngini = 0.08\nsamples = 13063\nvalue = [19676, 891]", fillcolor="#e68742"] ;
34 -> 46 ;
47 [label="gini = 0.0\nsamples = 530\nvalue = [0, 850]", fillcolor="#399de5"] ;
46 -> 47 ;
48 [label="Src IP <= 873527488.0\ngini = 0.0\nsamples = 12533\nvalue = [19676, 41]", fillcolor="#e58139"] ;
46 -> 48 ;
49 [label="Unnamed: 0 <= 3068159.0\ngini = 0.03\nsamples = 1524\nvalue = [2407, 41]", fillcolor="#e5833c"] ;
48 -> 49 ;
50 [label="Bwd Seg Size Avg <= 7065625.0\ngini = 0.16\nsamples = 28\nvalue = [4, 41]", fillcolor="#4ca7e8"] ;
49 -> 50 ;
51 [label="gini = 0.0\nsamples = 26\nvalue = [0, 41]", fillcolor="#399de5"] ;
50 -> 51 ;
52 [label="gini = 0.0\nsamples = 2\nvalue = [4, 0]", fillcolor="#e58139"] ;
50 -> 52 ;
53 [label="gini = 0.0\nsamples = 1496\nvalue = [2403, 0]", fillcolor="#e58139"] ;
49 -> 53 ;
54 [label="gini = 0.0\nsamples = 11009\nvalue = [17269, 0]", fillcolor="#e58139"] ;
48 -> 54 ;
55 [label="Src IP <= 316433072.0\ngini = 0.0\nsamples = 17155\nvalue = [27131, 46]", fillcolor="#e58139"] ;
33 -> 55 ;
56 [label="Bwd Pkts/s <= 38109756.0\ngini = 0.12\nsamples = 397\nvalue = [580, 38]", fillcolor="#e78946"] ;
55 -> 56 ;
57 [label="Fwd Seg Size Min <= 14.0\ngini = 0.24\nsamples = 186\nvalue = [239, 38]", fillcolor="#e99558"] ;
56 -> 57 ;
58 [label="Fwd Act Data Pkts <= 1465.0\ngini = 0.14\nsamples = 28\nvalue = [3, 38]", fillcolor="#49a5e7"] ;
57 -> 58 ;
59 [label="gini = 0.0\nsamples = 2\nvalue = [3, 0]", fillcolor="#e58139"] ;
58 -> 59 ;
60 [label="gini = 0.0\nsamples = 26\nvalue = [0, 38]", fillcolor="#399de5"] ;
58 -> 60 ;
61 [label="gini = 0.0\nsamples = 158\nvalue = [236, 0]", fillcolor="#e58139"] ;
57 -> 61 ;
62 [label="gini = 0.0\nsamples = 211\nvalue = [341, 0]", fillcolor="#e58139"] ;
56 -> 62 ;
63 [label="Unnamed: 0 <= 264996.5\ngini = 0.0\nsamples = 16758\nvalue = [26551, 8]", fillcolor="#e58139"] ;
55 -> 63 ;
64 [label="gini = 0.0\nsamples = 3\nvalue = [0, 8]", fillcolor="#399de5"] ;
63 -> 64 ;
65 [label="gini = 0.0\nsamples = 16755\nvalue = [26551, 0]", fillcolor="#e58139"] ;
63 -> 65 ;
66 [label="gini = 0.0\nsamples = 132772\nvalue = [210120, 0]", fillcolor="#e58139"] ;
32 -> 66 ;
}