digraph Tree {
node [shape=box, style="filled, rounded", color="black", fontname="helvetica"] ;
edge [fontname="helvetica"] ;
0 [label="Src IP <= 316398032.0\ngini = 0.5\nsamples = 6470625\nvalue = [5055091, 5180610]", fillcolor="#fafdfe"] ;
1 [label="Flow Pkts/s <= 2664.5\ngini = 0.09\nsamples = 1888174\nvalue = [143594, 2844129]", fillcolor="#43a2e6"] ;
0 -> 1 [labeldistance=2.5, labelangle=45, headlabel="True"] ;
2 [label="Src IP <= 283114896.0\ngini = 0.16\nsamples = 26972\nvalue = [38722, 3800]", fillcolor="#e88d4c"] ;
1 -> 2 ;
3 [label="gini = 0.0\nsamples = 24596\nvalue = [38722, 0]", fillcolor="#e58139"] ;
2 -> 3 ;
4 [label="gini = 0.0\nsamples = 2376\nvalue = [0, 3800]", fillcolor="#399de5"] ;
2 -> 4 ;
5 [label="Subflow Bwd Byts <= 981.5\ngini = 0.07\nsamples = 1861202\nvalue = [104872, 2840329]", fillcolor="#40a1e6"] ;
1 -> 5 ;
6 [label="Unnamed: 0 <= 1856777.5\ngini = 0.03\nsamples = 1826670\nvalue = [50242, 2840329]", fillcolor="#3d9fe5"] ;
5 -> 6 ;
7 [label="Src IP <= 222000760.0\ngini = 0.0\nsamples = 1798258\nvalue = [5205, 2840329]", fillcolor="#399de5"] ;
6 -> 7 ;
8 [label="gini = 0.0\nsamples = 2754\nvalue = [4319, 0]", fillcolor="#e58139"] ;
7 -> 8 ;
9 [label="Dst IP <= 2887730176.0\ngini = 0.0\nsamples = 1795504\nvalue = [886, 2840329]", fillcolor="#399de5"] ;
7 -> 9 ;
10 [label="gini = 0.0\nsamples = 516\nvalue = [824, 0]", fillcolor="#e58139"] ;
9 -> 10 ;
11 [label="Dst IP <= 3059984256.0\ngini = 0.0\nsamples = 1794988\nvalue = [62, 2840329]", fillcolor="#399de5"] ;
9 -> 11 ;
12 [label="Src IP <= 282212696.0\ngini = 0.0\nsamples = 1794945\nvalue = [5, 2840329]", fillcolor="#399de5"] ;
11 -> 12 ;
13 [label="Src IP <= 233118184.0\ngini = 0.0\nsamples = 53808\nvalue = [5, 85136]", fillcolor="#399de5"] ;
12 -> 13 ;
14 [label="gini = 0.0\nsamples = 53805\nvalue = [0, 85136]", fillcolor="#399de5"] ;
13 -> 14 ;
15 [label="gini = 0.0\nsamples = 3\nvalue = [5, 0]", fillcolor="#e58139"] ;
13 -> 15 ;
16 [label="gini = 0.0\nsamples = 1741137\nvalue = [0, 2755193]", fillcolor="#399de5"] ;
12 -> 16 ;
17 [label="gini = 0.0\nsamples = 43\nvalue = [57, 0]", fillcolor="#e58139"] ;
11 -> 17 ;
18 [label="gini = 0.0\nsamples = 28412\nvalue = [45037, 0]", fillcolor="#e58139"] ;
6 -> 18 ;
19 [label="gini = 0.0\nsamples = 34532\nvalue = [54630, 0]", fillcolor="#e58139"] ;
5 -> 19 ;
20 [label="Init Fwd Win Byts <= -0.5\ngini = 0.44\nsamples = 4582451\nvalue = [4911497, 2336481]", fillcolor="#f1bd97"] ;
0 -> 20 [labeldistance=2.5, labelangle=-45, headlabel="False"] ;
21 [label="Src IP <= 2887730304.0\ngini = 0.5\nsamples = 2696605\nvalue = [1975515, 2289949]", fillcolor="#e4f2fb"] ;
20 -> 21 ;
22 [label="Timestamp <= 1519183168.0\ngini = 0.11\nsamples = 1060240\nvalue = [1578353, 98900]", fillcolor="#e78945"] ;
21 -> 22 ;
23 [label="Unnamed: 0 <= 418149.0\ngini = 0.0\nsamples = 997630\nvalue = [1578353, 61]", fillcolor="#e58139"] ;
22 -> 23 ;
24 [label="Fwd Act Data Pkts <= 20376.0\ngini = 0.0\nsamples = 21855\nvalue = [34847, 54]", fillcolor="#e58139"] ;
23 -> 24 ;
25 [label="gini = 0.0\nsamples = 21820\nvalue = [34847, 0]", fillcolor="#e58139"] ;
24 -> 25 ;
26 [label="gini = 0.0\nsamples = 35\nvalue = [0, 54]", fillcolor="#399de5"] ;
24 -> 26 ;
27 [label="Unnamed: 0 <= 568309.0\ngini = 0.0\nsamples = 975775\nvalue = [1543506, 7]", fillcolor="#e58139"] ;
23 -> 27 ;
28 [label="Dst IP <= 2990139136.0\ngini = 0.0\nsamples = 12961\nvalue = [20208, 7]", fillcolor="#e58139"] ;
27 -> 28 ;
29 [label="Fwd Act Data Pkts <= 15722.5\ngini = 0.0\nsamples = 4806\nvalue = [7437, 7]", fillcolor="#e58139"] ;
28 -> 29 ;
30 [label="gini = 0.0\nsamples = 4802\nvalue = [7437, 0]", fillcolor="#e58139"] ;
29 -> 30 ;
31 [label="gini = 0.0\nsamples = 4\nvalue = [0, 7]", fillcolor="#399de5"] ;
29 -> 31 ;
32 [label="gini = 0.0\nsamples = 8155\nvalue = [12771, 0]", fillcolor="#e58139"] ;
28 -> 32 ;
33 [label="gini = 0.0\nsamples = 962814\nvalue = [1523298, 0]", fillcolor="#e58139"] ;
27 -> 33 ;
34 [label="gini = 0.0\nsamples = 62610\nvalue = [0, 98839]", fillcolor="#399de5"] ;
22 -> 34 ;
35 [label="Init Bwd Win Byts <= 210.5\ngini = 0.26\nsamples = 1636365\nvalue = [397162, 2191049]", fillcolor="#5dafea"] ;
21 -> 35 ;
36 [label="Flow Pkts/s <= 42287.0\ngini = 0.05\nsamples = 195079\nvalue = [301242, 7418]", fillcolor="#e6843e"] ;
35 -> 36 ;
37 [label="Timestamp <= 1387747712.0\ngini = 0.38\nsamples = 13558\nvalue = [16095, 5392]", fillcolor="#eeab7b"] ;
36 -> 37 ;
38 [label="gini = 0.0\nsamples = 2579\nvalue = [0, 4085]", fillcolor="#399de5"] ;
37 -> 38 ;
39 [label="Timestamp <= 1519183104.0\ngini = 0.14\nsamples = 10979\nvalue = [16095, 1307]", fillcolor="#e78b49"] ;
37 -> 39 ;
40 [label="gini = 0.0\nsamples = 10129\nvalue = [16095, 0]", fillcolor="#e58139"] ;
39 -> 40 ;
41 [label="gini = 0.0\nsamples = 850\nvalue = [0, 1307]", fillcolor="#399de5"] ;
39 -> 41 ;
42 [label="Fwd Act Data Pkts <= 5.5\ngini = 0.01\nsamples = 181521\nvalue = [285147, 2026]", fillcolor="#e5823a"] ;
36 -> 42 ;
43 [label="Idle Min <= 1009913856000.0\ngini = 0.01\nsamples = 176011\nvalue = [276649, 1865]", fillcolor="#e5823a"] ;
42 -> 43 ;
44 [label="Bwd Seg Size Avg <= 2675000.0\ngini = 0.01\nsamples = 175604\nvalue = [276230, 1625]", fillcolor="#e5823a"] ;
43 -> 44 ;
45 [label="Bwd IAT Min <= 4350000.0\ngini = 0.12\nsamples = 10318\nvalue = [15254, 1056]", fillcolor="#e78a47"] ;
44 -> 45 ;
46 [label="Unnamed: 0 <= 291291.5\ngini = 0.19\nsamples = 5809\nvalue = [8172, 975]", fillcolor="#e89051"] ;
45 -> 46 ;
47 [label="Src IP <= 3232243968.0\ngini = 0.48\nsamples = 1501\nvalue = [1392, 975]", fillcolor="#f7d9c4"] ;
46 -> 47 ;
48 [label="FIN Flag Cnt <= 0.5\ngini = 0.25\nsamples = 812\nvalue = [1104, 191]", fillcolor="#e9975b"] ;
47 -> 48 ;
49 [label="gini = 0.0\nsamples = 653\nvalue = [1048, 0]", fillcolor="#e58139"] ;
48 -> 49 ;
50 [label="Flow Pkts/s <= 11342659.5\ngini = 0.35\nsamples = 159\nvalue = [56, 191]", fillcolor="#73baed"] ;
48 -> 50 ;
51 [label="Flow Pkts/s <= 6699302.0\ngini = 0.17\nsamples = 137\nvalue = [20, 191]", fillcolor="#4ea7e8"] ;
50 -> 51 ;
52 [label="gini = 0.0\nsamples = 14\nvalue = [20, 0]", fillcolor="#e58139"] ;
51 -> 52 ;
53 [label="gini = 0.0\nsamples = 123\nvalue = [0, 191]", fillcolor="#399de5"] ;
51 -> 53 ;
54 [label="gini = 0.0\nsamples = 22\nvalue = [36, 0]", fillcolor="#e58139"] ;
50 -> 54 ;
55 [label="Init Bwd Win Byts <= 27.0\ngini = 0.39\nsamples = 689\nvalue = [288, 784]", fillcolor="#82c1ef"] ;
47 -> 55 ;
56 [label="Bwd Pkts/s <= 6521739264.0\ngini = 0.19\nsamples = 85\nvalue = [125, 15]", fillcolor="#e89051"] ;
55 -> 56 ;
57 [label="Dst IP <= 2432257344.0\ngini = 0.08\nsamples = 78\nvalue = [121, 5]", fillcolor="#e68641"] ;
56 -> 57 ;
58 [label="gini = 0.0\nsamples = 3\nvalue = [0, 5]", fillcolor="#399de5"] ;
57 -> 58 ;
59 [label="gini = 0.0\nsamples = 75\nvalue = [121, 0]", fillcolor="#e58139"] ;
57 -> 59 ;
60 [label="Unnamed: 0 <= 227505.0\ngini = 0.41\nsamples = 7\nvalue = [4, 10]", fillcolor="#88c4ef"] ;
56 -> 60 ;
61 [label="gini = 0.0\nsamples = 3\nvalue = [0, 5]", fillcolor="#399de5"] ;
60 -> 61 ;
62 [label="Flow Pkts/s <= 44999999488.0\ngini = 0.49\nsamples = 4\nvalue = [4, 5]", fillcolor="#d7ebfa"] ;
60 -> 62 ;
63 [label="gini = 0.0\nsamples = 1\nvalue = [0, 1]", fillcolor="#399de5"] ;
62 -> 63 ;
64 [label="Src IP <= 3278760064.0\ngini = 0.5\nsamples = 3\nvalue = [4, 4]", fillcolor="#ffffff"] ;
62 -> 64 ;
65 [label="gini = 0.0\nsamples = 2\nvalue = [0, 4]", fillcolor="#399de5"] ;
64 -> 65 ;
66 [label="gini = 0.0\nsamples = 1\nvalue = [4, 0]", fillcolor="#e58139"] ;
64 -> 66 ;
67 [label="Bwd IAT Min <= 50000.0\ngini = 0.29\nsamples = 604\nvalue = [163, 769]", fillcolor="#63b2eb"] ;
55 -> 67 ;
68 [label="Dst IP <= 2432257344.0\ngini = 0.48\nsamples = 262\nvalue = [163, 247]", fillcolor="#bcdef6"] ;
67 -> 68 ;
69 [label="gini = 0.0\nsamples = 151\nvalue = [0, 242]", fillcolor="#399de5"] ;
68 -> 69 ;
70 [label="Flow Pkts/s <= 601099.0\ngini = 0.06\nsamples = 111\nvalue = [163, 5]", fillcolor="#e6853f"] ;
68 -> 70 ;
71 [label="gini = 0.0\nsamples = 3\nvalue = [0, 3]", fillcolor="#399de5"] ;
70 -> 71 ;
72 [label="Timestamp <= 1387726848.0\ngini = 0.02\nsamples = 108\nvalue = [163, 2]", fillcolor="#e5833b"] ;
70 -> 72 ;
73 [label="gini = 0.0\nsamples = 2\nvalue = [0, 2]", fillcolor="#399de5"] ;
72 -> 73 ;
74 [label="gini = 0.0\nsamples = 106\nvalue = [163, 0]", fillcolor="#e58139"] ;
72 -> 74 ;
75 [label="gini = 0.0\nsamples = 342\nvalue = [0, 522]", fillcolor="#399de5"] ;
67 -> 75 ;
76 [label="gini = 0.0\nsamples = 4308\nvalue = [6780, 0]", fillcolor="#e58139"] ;
46 -> 76 ;
77 [label="Bwd Pkts/s <= 35178.5\ngini = 0.02\nsamples = 4509\nvalue = [7082, 81]", fillcolor="#e5823b"] ;
45 -> 77 ;
78 [label="Idle Min <= 889500762112.0\ngini = 0.24\nsamples = 30\nvalue = [7, 43]", fillcolor="#59ade9"] ;
77 -> 78 ;
79 [label="Bwd IAT Min <= 19044899840.0\ngini = 0.04\nsamples = 25\nvalue = [1, 43]", fillcolor="#3e9fe6"] ;
78 -> 79 ;
80 [label="gini = 0.0\nsamples = 1\nvalue = [1, 0]", fillcolor="#e58139"] ;
79 -> 80 ;
81 [label="gini = 0.0\nsamples = 24\nvalue = [0, 43]", fillcolor="#399de5"] ;
79 -> 81 ;
82 [label="gini = 0.0\nsamples = 5\nvalue = [6, 0]", fillcolor="#e58139"] ;
78 -> 82 ;
83 [label="Bwd IAT Min <= 71432200192.0\ngini = 0.01\nsamples = 4479\nvalue = [7075, 38]", fillcolor="#e5823a"] ;
77 -> 83 ;
84 [label="Timestamp <= 1387737728.0\ngini = 0.01\nsamples = 4388\nvalue = [6954, 22]", fillcolor="#e5813a"] ;
83 -> 84 ;
85 [label="gini = 0.0\nsamples = 5\nvalue = [0, 8]", fillcolor="#399de5"] ;
84 -> 85 ;
86 [label="Src IP <= 2889419136.0\ngini = 0.0\nsamples = 4383\nvalue = [6954, 14]", fillcolor="#e58139"] ;
84 -> 86 ;
87 [label="gini = 0.0\nsamples = 9\nvalue = [0, 14]", fillcolor="#399de5"] ;
86 -> 87 ;
88 [label="gini = 0.0\nsamples = 4374\nvalue = [6954, 0]", fillcolor="#e58139"] ;
86 -> 88 ;
89 [label="Init Bwd Win Byts <= 114.0\ngini = 0.21\nsamples = 91\nvalue = [121, 16]", fillcolor="#e89253"] ;
83 -> 89 ;
90 [label="Timestamp <= 1387748608.0\ngini = 0.03\nsamples = 79\nvalue = [116, 2]", fillcolor="#e5833c"] ;
89 -> 90 ;
91 [label="gini = 0.0\nsamples = 1\nvalue = [0, 2]", fillcolor="#399de5"] ;
90 -> 91 ;
92 [label="gini = 0.0\nsamples = 78\nvalue = [116, 0]", fillcolor="#e58139"] ;
90 -> 92 ;
93 [label="Subflow Bwd Byts <= 15.5\ngini = 0.39\nsamples = 12\nvalue = [5, 14]", fillcolor="#80c0ee"] ;
89 -> 93 ;
94 [label="gini = 0.0\nsamples = 8\nvalue = [0, 14]", fillcolor="#399de5"] ;
93 -> 94 ;
95 [label="gini = 0.0\nsamples = 4\nvalue = [5, 0]", fillcolor="#e58139"] ;
93 -> 95 ;
96 [label="Init Bwd Win Byts <= 121.5\ngini = 0.0\nsamples = 165286\nvalue = [260976, 569]", fillcolor="#e58139"] ;
44 -> 96 ;
97 [label="Src IP <= 3232243968.0\ngini = 0.0\nsamples = 162508\nvalue = [257111, 91]", fillcolor="#e58139"] ;
96 -> 97 ;
98 [label="Timestamp <= 1519184128.0\ngini = 0.0\nsamples = 162237\nvalue = [256778, 6]", fillcolor="#e58139"] ;
97 -> 98 ;
99 [label="Subflow Bwd Byts <= 54.5\ngini = 0.0\nsamples = 162235\nvalue = [256778, 2]", fillcolor="#e58139"] ;
98 -> 99 ;
100 [label="Fwd Pkts/s <= 24997.5\ngini = 0.0\nsamples = 5669\nvalue = [8900, 2]", fillcolor="#e58139"] ;
99 -> 100 ;
101 [label="Bwd Pkts/s <= 62932664.0\ngini = 0.3\nsamples = 6\nvalue = [9, 2]", fillcolor="#eb9d65"] ;
100 -> 101 ;
102 [label="gini = 0.0\nsamples = 5\nvalue = [9, 0]", fillcolor="#e58139"] ;
101 -> 102 ;
103 [label="gini = 0.0\nsamples = 1\nvalue = [0, 2]", fillcolor="#399de5"] ;
101 -> 103 ;
104 [label="gini = 0.0\nsamples = 5663\nvalue = [8891, 0]", fillcolor="#e58139"] ;
100 -> 104 ;
105 [label="gini = 0.0\nsamples = 156566\nvalue = [247878, 0]", fillcolor="#e58139"] ;
99 -> 105 ;
106 [label="gini = 0.0\nsamples = 2\nvalue = [0, 4]", fillcolor="#399de5"] ;
98 -> 106 ;
107 [label="Pkt Len Var <= 66846314496.0\ngini = 0.32\nsamples = 271\nvalue = [333, 85]", fillcolor="#eca16c"] ;
97 -> 107 ;
108 [label="Timestamp <= 1387730176.0\ngini = 0.02\nsamples = 217\nvalue = [329, 4]", fillcolor="#e5833b"] ;
107 -> 108 ;
109 [label="gini = 0.0\nsamples = 2\nvalue = [0, 4]", fillcolor="#399de5"] ;
108 -> 109 ;
110 [label="gini = 0.0\nsamples = 215\nvalue = [329, 0]", fillcolor="#e58139"] ;
108 -> 110 ;
111 [label="Subflow Bwd Byts <= 1571.5\ngini = 0.09\nsamples = 54\nvalue = [4, 81]", fillcolor="#43a2e6"] ;
107 -> 111 ;
112 [label="gini = 0.0\nsamples = 51\nvalue = [0, 81]", fillcolor="#399de5"] ;
111 -> 112 ;
113 [label="gini = 0.0\nsamples = 3\nvalue = [4, 0]", fillcolor="#e58139"] ;
111 -> 113 ;
114 [label="Bwd Seg Size Avg <= 88141668.0\ngini = 0.2\nsamples = 2778\nvalue = [3865, 478]", fillcolor="#e89151"] ;
96 -> 114 ;
115 [label="Timestamp <= 1387747904.0\ngini = 0.09\nsamples = 2310\nvalue = [3410, 178]", fillcolor="#e68843"] ;
114 -> 115 ;
116 [label="gini = 0.0\nsamples = 109\nvalue = [0, 178]", fillcolor="#399de5"] ;
115 -> 116 ;
117 [label="gini = 0.0\nsamples = 2201\nvalue = [3410, 0]", fillcolor="#e58139"] ;
115 -> 117 ;
118 [label="Subflow Bwd Byts <= 9093.0\ngini = 0.48\nsamples = 468\nvalue = [455, 300]", fillcolor="#f6d4bc"] ;
114 -> 118 ;
119 [label="Src IP <= 3232243968.0\ngini = 0.08\nsamples = 190\nvalue = [13, 299]", fillcolor="#42a1e6"] ;
118 -> 119 ;
120 [label="gini = 0.0\nsamples = 8\nvalue = [13, 0]", fillcolor="#e58139"] ;
119 -> 120 ;
121 [label="gini = 0.0\nsamples = 182\nvalue = [0, 299]", fillcolor="#399de5"] ;
119 -> 121 ;
122 [label="Flow Pkts/s <= 455583.5\ngini = 0.0\nsamples = 278\nvalue = [442, 1]", fillcolor="#e58139"] ;
118 -> 122 ;
123 [label="Pkt Len Var <= 216499716096.0\ngini = 0.01\nsamples = 134\nvalue = [206, 1]", fillcolor="#e5823a"] ;
122 -> 123 ;
124 [label="gini = 0.0\nsamples = 133\nvalue = [206, 0]", fillcolor="#e58139"] ;
123 -> 124 ;
125 [label="gini = 0.0\nsamples = 1\nvalue = [0, 1]", fillcolor="#399de5"] ;
123 -> 125 ;
126 [label="gini = 0.0\nsamples = 144\nvalue = [236, 0]", fillcolor="#e58139"] ;
122 -> 126 ;
127 [label="Src IP <= 3232243968.0\ngini = 0.46\nsamples = 407\nvalue = [419, 240]", fillcolor="#f4c9aa"] ;
43 -> 127 ;
128 [label="gini = 0.0\nsamples = 243\nvalue = [400, 0]", fillcolor="#e58139"] ;
127 -> 128 ;
129 [label="Subflow Bwd Byts <= 211.5\ngini = 0.14\nsamples = 164\nvalue = [19, 240]", fillcolor="#49a5e7"] ;
127 -> 129 ;
130 [label="gini = 0.0\nsamples = 13\nvalue = [19, 0]", fillcolor="#e58139"] ;
129 -> 130 ;
131 [label="gini = 0.0\nsamples = 151\nvalue = [0, 240]", fillcolor="#399de5"] ;
129 -> 131 ;
132 [label="Pkt Len Var <= 132905762816.0\ngini = 0.04\nsamples = 5510\nvalue = [8498, 161]", fillcolor="#e5833d"] ;
42 -> 132 ;
133 [label="Bwd Pkts/s <= 19103.0\ngini = 0.03\nsamples = 5416\nvalue = [8393, 120]", fillcolor="#e5833c"] ;
132 -> 133 ;
134 [label="Fwd Pkts/s <= 41572.0\ngini = 0.46\nsamples = 157\nvalue = [161, 88]", fillcolor="#f3c6a5"] ;
133 -> 134 ;
135 [label="Src IP <= 3232243968.0\ngini = 0.31\nsamples = 69\nvalue = [21, 87]", fillcolor="#69b5eb"] ;
134 -> 135 ;
136 [label="gini = 0.0\nsamples = 12\nvalue = [21, 0]", fillcolor="#e58139"] ;
135 -> 136 ;
137 [label="gini = 0.0\nsamples = 57\nvalue = [0, 87]", fillcolor="#399de5"] ;
135 -> 137 ;
138 [label="Pkt Len Min <= 650000.0\ngini = 0.01\nsamples = 88\nvalue = [140, 1]", fillcolor="#e5823a"] ;
134 -> 138 ;
139 [label="gini = 0.0\nsamples = 1\nvalue = [0, 1]", fillcolor="#399de5"] ;
138 -> 139 ;
140 [label="gini = 0.0\nsamples = 87\nvalue = [140, 0]", fillcolor="#e58139"] ;
138 -> 140 ;
141 [label="Flow Pkts/s <= 102442.0\ngini = 0.01\nsamples = 5259\nvalue = [8232, 32]", fillcolor="#e5813a"] ;
133 -> 141 ;
142 [label="Src IP <= 3232243968.0\ngini = 0.03\nsamples = 1447\nvalue = [2252, 31]", fillcolor="#e5833c"] ;
141 -> 142 ;
143 [label="gini = 0.0\nsamples = 1425\nvalue = [2248, 0]", fillcolor="#e58139"] ;
142 -> 143 ;
144 [label="Init Bwd Win Byts <= 60.5\ngini = 0.2\nsamples = 22\nvalue = [4, 31]", fillcolor="#53aae8"] ;
142 -> 144 ;
145 [label="gini = 0.0\nsamples = 2\nvalue = [4, 0]", fillcolor="#e58139"] ;
144 -> 145 ;
146 [label="gini = 0.0\nsamples = 20\nvalue = [0, 31]", fillcolor="#399de5"] ;
144 -> 146 ;
147 [label="Pkt Len Var <= 7764415488.0\ngini = 0.0\nsamples = 3812\nvalue = [5980, 1]", fillcolor="#e58139"] ;
141 -> 147 ;
148 [label="Timestamp <= 1387725120.0\ngini = 0.0\nsamples = 732\nvalue = [1153, 1]", fillcolor="#e58139"] ;
147 -> 148 ;
149 [label="gini = 0.0\nsamples = 1\nvalue = [0, 1]", fillcolor="#399de5"] ;
148 -> 149 ;
150 [label="gini = 0.0\nsamples = 731\nvalue = [1153, 0]", fillcolor="#e58139"] ;
148 -> 150 ;
151 [label="gini = 0.0\nsamples = 3080\nvalue = [4827, 0]", fillcolor="#e58139"] ;
147 -> 151 ;
152 [label="Pkt Len Var <= 134704644096.0\ngini = 0.4\nsamples = 94\nvalue = [105, 41]", fillcolor="#efb286"] ;
132 -> 152 ;
153 [label="Src IP <= 3232243968.0\ngini = 0.24\nsamples = 30\nvalue = [6, 37]", fillcolor="#59ade9"] ;
152 -> 153 ;
154 [label="gini = 0.0\nsamples = 5\nvalue = [6, 0]", fillcolor="#e58139"] ;
153 -> 154 ;
155 [label="gini = 0.0\nsamples = 25\nvalue = [0, 37]", fillcolor="#399de5"] ;
153 -> 155 ;
156 [label="Idle Min <= 540507701248.0\ngini = 0.07\nsamples = 64\nvalue = [99, 4]", fillcolor="#e68641"] ;
152 -> 156 ;
157 [label="Idle Min <= 523465900032.0\ngini = 0.26\nsamples = 19\nvalue = [22, 4]", fillcolor="#ea985d"] ;
156 -> 157 ;
158 [label="gini = 0.0\nsamples = 17\nvalue = [22, 0]", fillcolor="#e58139"] ;
157 -> 158 ;
159 [label="gini = 0.0\nsamples = 2\nvalue = [0, 4]", fillcolor="#399de5"] ;
157 -> 159 ;
160 [label="gini = 0.0\nsamples = 45\nvalue = [77, 0]", fillcolor="#e58139"] ;
156 -> 160 ;
161 [label="Src IP <= 3232237312.0\ngini = 0.08\nsamples = 1441286\nvalue = [95920, 2183631]", fillcolor="#42a1e6"] ;
35 -> 161 ;
162 [label="Unnamed: 0 <= 889614.0\ngini = 0.01\nsamples = 1379057\nvalue = [11286, 2169793]", fillcolor="#3a9ee5"] ;
161 -> 162 ;
163 [label="Unnamed: 0 <= 203432.5\ngini = 0.44\nsamples = 21737\nvalue = [11286, 23216]", fillcolor="#99cdf2"] ;
162 -> 163 ;
164 [label="Src IP <= 3231060224.0\ngini = 0.23\nsamples = 16809\nvalue = [3574, 23076]", fillcolor="#58ace9"] ;
163 -> 164 ;
165 [label="Subflow Bwd Byts <= 145.5\ngini = 0.1\nsamples = 2396\nvalue = [3574, 190]", fillcolor="#e68844"] ;
164 -> 165 ;
166 [label="gini = 0.0\nsamples = 2270\nvalue = [3568, 0]", fillcolor="#e58139"] ;
165 -> 166 ;
167 [label="Dst IP <= 1774245792.0\ngini = 0.06\nsamples = 126\nvalue = [6, 190]", fillcolor="#3fa0e6"] ;
165 -> 167 ;
168 [label="gini = 0.0\nsamples = 121\nvalue = [0, 190]", fillcolor="#399de5"] ;
167 -> 168 ;
169 [label="gini = 0.0\nsamples = 5\nvalue = [6, 0]", fillcolor="#e58139"] ;
167 -> 169 ;
170 [label="gini = 0.0\nsamples = 14413\nvalue = [0, 22886]", fillcolor="#399de5"] ;
164 -> 170 ;
171 [label="Idle Std <= 170512449536.0\ngini = 0.04\nsamples = 4928\nvalue = [7712, 140]", fillcolor="#e5833d"] ;
163 -> 171 ;
172 [label="Timestamp <= 1387751296.0\ngini = 0.03\nsamples = 4923\nvalue = [7712, 132]", fillcolor="#e5833c"] ;
171 -> 172 ;
173 [label="gini = 0.0\nsamples = 83\nvalue = [0, 132]", fillcolor="#399de5"] ;
172 -> 173 ;
174 [label="gini = 0.0\nsamples = 4840\nvalue = [7712, 0]", fillcolor="#e58139"] ;
172 -> 174 ;
175 [label="gini = 0.0\nsamples = 5\nvalue = [0, 8]", fillcolor="#399de5"] ;
171 -> 175 ;
176 [label="gini = 0.0\nsamples = 1357320\nvalue = [0, 2146577]", fillcolor="#399de5"] ;
162 -> 176 ;
177 [label="Dst IP <= 1642750144.0\ngini = 0.24\nsamples = 62229\nvalue = [84634, 13838]", fillcolor="#e99659"] ;
161 -> 177 ;
178 [label="Timestamp <= 1387747840.0\ngini = 0.4\nsamples = 31022\nvalue = [35289, 13671]", fillcolor="#efb286"] ;
177 -> 178 ;
179 [label="gini = 0.0\nsamples = 8597\nvalue = [0, 13671]", fillcolor="#399de5"] ;
178 -> 179 ;
180 [label="gini = 0.0\nsamples = 22425\nvalue = [35289, 0]", fillcolor="#e58139"] ;
178 -> 180 ;
181 [label="Timestamp <= 1387726400.0\ngini = 0.01\nsamples = 31207\nvalue = [49345, 167]", fillcolor="#e5813a"] ;
177 -> 181 ;
182 [label="gini = 0.0\nsamples = 106\nvalue = [0, 167]", fillcolor="#399de5"] ;
181 -> 182 ;
183 [label="gini = 0.0\nsamples = 31101\nvalue = [49345, 0]", fillcolor="#e58139"] ;
181 -> 183 ;
184 [label="Fwd Act Data Pkts <= 1.5\ngini = 0.03\nsamples = 1885846\nvalue = [2935982, 46532]", fillcolor="#e5833c"] ;
20 -> 184 ;
185 [label="Bwd Seg Size Avg <= 24075000.0\ngini = 0.06\nsamples = 998963\nvalue = [1533369, 46532]", fillcolor="#e6853f"] ;
184 -> 185 ;
186 [label="Flow Pkts/s <= 32551.0\ngini = 0.03\nsamples = 975762\nvalue = [1520105, 23060]", fillcolor="#e5833c"] ;
185 -> 186 ;
187 [label="Fwd Pkts/s <= 6662.5\ngini = 0.23\nsamples = 96417\nvalue = [132628, 19922]", fillcolor="#e99457"] ;
186 -> 187 ;
188 [label="Unnamed: 0 <= 566189.0\ngini = 0.1\nsamples = 84284\nvalue = [125963, 7406]", fillcolor="#e78845"] ;
187 -> 188 ;
189 [label="Flow Pkts/s <= 3851.0\ngini = 0.16\nsamples = 4962\nvalue = [687, 7163]", fillcolor="#4ca6e7"] ;
188 -> 189 ;
190 [label="Unnamed: 0 <= 531204.0\ngini = 0.5\nsamples = 890\nvalue = [645, 750]", fillcolor="#e3f1fb"] ;
189 -> 190 ;
191 [label="gini = 0.0\nsamples = 452\nvalue = [0, 692]", fillcolor="#399de5"] ;
190 -> 191 ;
192 [label="Active Min <= 7091800064.0\ngini = 0.15\nsamples = 438\nvalue = [645, 58]", fillcolor="#e78c4b"] ;
190 -> 192 ;
193 [label="Fwd Pkts/s <= 3034.0\ngini = 0.15\nsamples = 431\nvalue = [635, 58]", fillcolor="#e78d4b"] ;
192 -> 193 ;
194 [label="Timestamp <= 1519105344.0\ngini = 0.06\nsamples = 29\nvalue = [2, 58]", fillcolor="#40a0e6"] ;
193 -> 194 ;
195 [label="gini = 0.0\nsamples = 1\nvalue = [2, 0]", fillcolor="#e58139"] ;
194 -> 195 ;
196 [label="gini = 0.0\nsamples = 28\nvalue = [0, 58]", fillcolor="#399de5"] ;
194 -> 196 ;
197 [label="gini = 0.0\nsamples = 402\nvalue = [633, 0]", fillcolor="#e58139"] ;
193 -> 197 ;
198 [label="gini = 0.0\nsamples = 7\nvalue = [10, 0]", fillcolor="#e58139"] ;
192 -> 198 ;
199 [label="Init Bwd Win Byts <= -0.5\ngini = 0.01\nsamples = 4072\nvalue = [42, 6413]", fillcolor="#3a9ee5"] ;
189 -> 199 ;
200 [label="Init Fwd Win Byts <= 251.5\ngini = 0.0\nsamples = 4038\nvalue = [3, 6413]", fillcolor="#399de5"] ;
199 -> 200 ;
201 [label="gini = 0.0\nsamples = 2\nvalue = [3, 0]", fillcolor="#e58139"] ;
200 -> 201 ;
202 [label="gini = 0.0\nsamples = 4036\nvalue = [0, 6413]", fillcolor="#399de5"] ;
200 -> 202 ;
203 [label="gini = 0.0\nsamples = 34\nvalue = [39, 0]", fillcolor="#e58139"] ;
199 -> 203 ;
204 [label="Dst IP <= 2887730304.0\ngini = 0.0\nsamples = 79322\nvalue = [125276, 243]", fillcolor="#e58139"] ;
188 -> 204 ;
205 [label="gini = 0.0\nsamples = 71099\nvalue = [112511, 0]", fillcolor="#e58139"] ;
204 -> 205 ;
206 [label="Dst IP <= 2893817216.0\ngini = 0.04\nsamples = 8223\nvalue = [12765, 243]", fillcolor="#e5833d"] ;
204 -> 206 ;
207 [label="Bwd Pkts/s <= 1063.5\ngini = 0.46\nsamples = 241\nvalue = [134, 243]", fillcolor="#a6d3f3"] ;
206 -> 207 ;
208 [label="Pkt Len Var <= 4266666.5\ngini = 0.12\nsamples = 163\nvalue = [17, 243]", fillcolor="#47a4e7"] ;
207 -> 208 ;
209 [label="Unnamed: 0 <= 3071794.5\ngini = 0.08\nsamples = 158\nvalue = [11, 243]", fillcolor="#42a1e6"] ;
208 -> 209 ;
210 [label="gini = 0.0\nsamples = 151\nvalue = [0, 243]", fillcolor="#399de5"] ;
209 -> 210 ;
211 [label="gini = 0.0\nsamples = 7\nvalue = [11, 0]", fillcolor="#e58139"] ;
209 -> 211 ;
212 [label="gini = 0.0\nsamples = 5\nvalue = [6, 0]", fillcolor="#e58139"] ;
208 -> 212 ;
213 [label="gini = 0.0\nsamples = 78\nvalue = [117, 0]", fillcolor="#e58139"] ;
207 -> 213 ;
214 [label="gini = 0.0\nsamples = 7982\nvalue = [12631, 0]", fillcolor="#e58139"] ;
206 -> 214 ;
215 [label="Idle Min <= 625598889984.0\ngini = 0.45\nsamples = 12133\nvalue = [6665, 12516]", fillcolor="#a2d1f3"] ;
187 -> 215 ;
216 [label="Unnamed: 0 <= 533626.5\ngini = 0.02\nsamples = 1790\nvalue = [2816, 34]", fillcolor="#e5833b"] ;
215 -> 216 ;
217 [label="gini = 0.0\nsamples = 20\nvalue = [0, 29]", fillcolor="#399de5"] ;
216 -> 217 ;
218 [label="Idle Min <= 619293245440.0\ngini = 0.0\nsamples = 1770\nvalue = [2816, 5]", fillcolor="#e58139"] ;
216 -> 218 ;
219 [label="gini = 0.0\nsamples = 1732\nvalue = [2762, 0]", fillcolor="#e58139"] ;
218 -> 219 ;
220 [label="Timestamp <= 1519117632.0\ngini = 0.16\nsamples = 38\nvalue = [54, 5]", fillcolor="#e78d4b"] ;
218 -> 220 ;
221 [label="gini = 0.0\nsamples = 26\nvalue = [40, 0]", fillcolor="#e58139"] ;
220 -> 221 ;
222 [label="Init Fwd Win Byts <= 5120.5\ngini = 0.39\nsamples = 12\nvalue = [14, 5]", fillcolor="#eeae80"] ;
220 -> 222 ;
223 [label="Fwd Act Data Pkts <= 0.5\ngini = 0.47\nsamples = 7\nvalue = [3, 5]", fillcolor="#b0d8f5"] ;
222 -> 223 ;
224 [label="gini = 0.0\nsamples = 5\nvalue = [0, 5]", fillcolor="#399de5"] ;
223 -> 224 ;
225 [label="gini = 0.0\nsamples = 2\nvalue = [3, 0]", fillcolor="#e58139"] ;
223 -> 225 ;
226 [label="gini = 0.0\nsamples = 5\nvalue = [11, 0]", fillcolor="#e58139"] ;
222 -> 226 ;
227 [label="Src IP <= 873593408.0\ngini = 0.36\nsamples = 10343\nvalue = [3849, 12482]", fillcolor="#76bbed"] ;
215 -> 227 ;
228 [label="Init Bwd Win Byts <= -0.5\ngini = 0.03\nsamples = 8004\nvalue = [182, 12482]", fillcolor="#3c9ee5"] ;
227 -> 228 ;
229 [label="Src IP <= 873027552.0\ngini = 0.02\nsamples = 7946\nvalue = [104, 12482]", fillcolor="#3b9ee5"] ;
228 -> 229 ;
230 [label="gini = 0.0\nsamples = 61\nvalue = [104, 0]", fillcolor="#e58139"] ;
229 -> 230 ;
231 [label="gini = 0.0\nsamples = 7885\nvalue = [0, 12482]", fillcolor="#399de5"] ;
229 -> 231 ;
232 [label="gini = 0.0\nsamples = 58\nvalue = [78, 0]", fillcolor="#e58139"] ;
228 -> 232 ;
233 [label="gini = 0.0\nsamples = 2339\nvalue = [3667, 0]", fillcolor="#e58139"] ;
227 -> 233 ;
234 [label="Fwd Pkts/s <= 609908.5\ngini = 0.0\nsamples = 879345\nvalue = [1387477, 3138]", fillcolor="#e58139"] ;
186 -> 234 ;
235 [label="Src IP <= 873473792.0\ngini = 0.03\nsamples = 112805\nvalue = [175932, 2957]", fillcolor="#e5833c"] ;
234 -> 235 ;
236 [label="Fwd PSH Flags <= 0.5\ngini = 0.3\nsamples = 10125\nvalue = [13102, 2957]", fillcolor="#eb9d66"] ;
235 -> 236 ;
237 [label="Src IP <= 873354592.0\ngini = 0.43\nsamples = 5830\nvalue = [6346, 2957]", fillcolor="#f1bc95"] ;
236 -> 237 ;
238 [label="gini = 0.0\nsamples = 3950\nvalue = [6346, 0]", fillcolor="#e58139"] ;
237 -> 238 ;
239 [label="gini = 0.0\nsamples = 1880\nvalue = [0, 2957]", fillcolor="#399de5"] ;
237 -> 239 ;
240 [label="gini = 0.0\nsamples = 4295\nvalue = [6756, 0]", fillcolor="#e58139"] ;
236 -> 240 ;
241 [label="gini = 0.0\nsamples = 102680\nvalue = [162830, 0]", fillcolor="#e58139"] ;
235 -> 241 ;
242 [label="Fwd Pkts/s <= 16033991.5\ngini = 0.0\nsamples = 766540\nvalue = [1211545, 181]", fillcolor="#e58139"] ;
234 -> 242 ;
243 [label="Unnamed: 0 <= 530059.0\ngini = 0.0\nsamples = 120082\nvalue = [189536, 179]", fillcolor="#e58139"] ;
242 -> 243 ;
244 [label="Flow Pkts/s <= 984651.5\ngini = 0.01\nsamples = 94\nvalue = [1, 156]", fillcolor="#3a9ee5"] ;
243 -> 244 ;
245 [label="Dst IP <= 1601941136.0\ngini = 0.05\nsamples = 24\nvalue = [1, 40]", fillcolor="#3e9fe6"] ;
244 -> 245 ;
246 [label="gini = 0.0\nsamples = 1\nvalue = [1, 0]", fillcolor="#e58139"] ;
245 -> 246 ;
247 [label="gini = 0.0\nsamples = 23\nvalue = [0, 40]", fillcolor="#399de5"] ;
245 -> 247 ;
248 [label="gini = 0.0\nsamples = 70\nvalue = [0, 116]", fillcolor="#399de5"] ;
244 -> 248 ;
249 [label="Dst IP <= 2887730304.0\ngini = 0.0\nsamples = 119988\nvalue = [189535, 23]", fillcolor="#e58139"] ;
243 -> 249 ;
250 [label="gini = 0.0\nsamples = 104215\nvalue = [164604, 0]", fillcolor="#e58139"] ;
249 -> 250 ;
251 [label="Init Bwd Win Byts <= -0.5\ngini = 0.0\nsamples = 15773\nvalue = [24931, 23]", fillcolor="#e58139"] ;
249 -> 251 ;
252 [label="Fwd Act Data Pkts <= 0.5\ngini = 0.03\nsamples = 1074\nvalue = [1677, 23]", fillcolor="#e5833c"] ;
251 -> 252 ;
253 [label="Init Fwd Win Byts <= 1303.5\ngini = 0.03\nsamples = 958\nvalue = [1494, 23]", fillcolor="#e5833c"] ;
252 -> 253 ;
254 [label="gini = 0.0\nsamples = 815\nvalue = [1290, 0]", fillcolor="#e58139"] ;
253 -> 254 ;
255 [label="Src IP <= 874155776.0\ngini = 0.18\nsamples = 143\nvalue = [204, 23]", fillcolor="#e88f4f"] ;
253 -> 255 ;
256 [label="Unnamed: 0 <= 3079562.5\ngini = 0.42\nsamples = 24\nvalue = [10, 23]", fillcolor="#8fc8f0"] ;
255 -> 256 ;
257 [label="gini = 0.0\nsamples = 16\nvalue = [0, 23]", fillcolor="#399de5"] ;
256 -> 257 ;
258 [label="gini = 0.0\nsamples = 8\nvalue = [10, 0]", fillcolor="#e58139"] ;
256 -> 258 ;
259 [label="gini = 0.0\nsamples = 119\nvalue = [194, 0]", fillcolor="#e58139"] ;
255 -> 259 ;
260 [label="gini = 0.0\nsamples = 116\nvalue = [183, 0]", fillcolor="#e58139"] ;
252 -> 260 ;
261 [label="gini = 0.0\nsamples = 14699\nvalue = [23254, 0]", fillcolor="#e58139"] ;
251 -> 261 ;
262 [label="Src IP <= 873396608.0\ngini = 0.0\nsamples = 646458\nvalue = [1022009, 2]", fillcolor="#e58139"] ;
242 -> 262 ;
263 [label="Flow Pkts/s <= 19351722.0\ngini = 0.0\nsamples = 78079\nvalue = [123070, 2]", fillcolor="#e58139"] ;
262 -> 263 ;
264 [label="Fwd Pkts/s <= 19326486.0\ngini = 0.02\nsamples = 65\nvalue = [102, 1]", fillcolor="#e5823b"] ;
263 -> 264 ;
265 [label="gini = 0.0\nsamples = 64\nvalue = [102, 0]", fillcolor="#e58139"] ;
264 -> 265 ;
266 [label="gini = 0.0\nsamples = 1\nvalue = [0, 1]", fillcolor="#399de5"] ;
264 -> 266 ;
267 [label="Flow Pkts/s <= 26659558.0\ngini = 0.0\nsamples = 78014\nvalue = [122968, 1]", fillcolor="#e58139"] ;
263 -> 267 ;
268 [label="Src IP <= 873030464.0\ngini = 0.0\nsamples = 503\nvalue = [847, 1]", fillcolor="#e58139"] ;
267 -> 268 ;
269 [label="gini = 0.0\nsamples = 502\nvalue = [847, 0]", fillcolor="#e58139"] ;
268 -> 269 ;
270 [label="gini = 0.0\nsamples = 1\nvalue = [0, 1]", fillcolor="#399de5"] ;
268 -> 270 ;
271 [label="gini = 0.0\nsamples = 77511\nvalue = [122121, 0]", fillcolor="#e58139"] ;
267 -> 271 ;
272 [label="gini = 0.0\nsamples = 568379\nvalue = [898939, 0]", fillcolor="#e58139"] ;
262 -> 272 ;
273 [label="Pkt Len Var <= 11556427264.0\ngini = 0.46\nsamples = 23201\nvalue = [13264, 23472]", fillcolor="#a9d4f4"] ;
185 -> 273 ;
274 [label="Bwd Seg Size Avg <= 24137500.0\ngini = 0.07\nsamples = 15382\nvalue = [847, 23472]", fillcolor="#40a1e6"] ;
273 -> 274 ;
275 [label="gini = 0.0\nsamples = 14844\nvalue = [0, 23472]", fillcolor="#399de5"] ;
274 -> 275 ;
276 [label="gini = 0.0\nsamples = 538\nvalue = [847, 0]", fillcolor="#e58139"] ;
274 -> 276 ;
277 [label="gini = 0.0\nsamples = 7819\nvalue = [12417, 0]", fillcolor="#e58139"] ;
273 -> 277 ;
278 [label="gini = 0.0\nsamples = 886883\nvalue = [1402613, 0]", fillcolor="#e58139"] ;
184 -> 278 ;
}